{"learner":{"attributes":{"best_iteration":"0","best_score":"0.826531"},"feature_names":["Time","V1","V2","V3","V4","V5","V6","V7","V8","V9","V10","V11","V12","V13","V14","V15","V16","V17","V18","V19","V20","V21","V22","V23","V24","V25","V26","V27","V28","Amount"],"feature_types":["float","float","float","float","float","float","float","float","float","float","float","float","float","float","float","float","float","float","float","float","float","float","float","float","float","float","float","float","float","float"],"gradient_booster":{"model":{"gbtree_model_param":{"num_parallel_tree":"1","num_trees":"51"},"iteration_indptr":[0,1,2,3,4,5,6,7,8,9,10,11,12,13,14,15,16,17,18,19,20,21,22,23,24,25,26,27,28,29,30,31,32,33,34,35,36,37,38,39,40,41,42,43,44,45,46,47,48,49,50,51],"tree_info":[0,0,0,0,0,0,0,0,0,0,0,0,0,0,0,0,0,0,0,0,0,0,0,0,0,0,0,0,0,0,0,0,0,0,0,0,0,0,0,0,0,0,0,0,0,0,0,0,0,0,0],"trees":[{"base_weights":[-2.6121337E0,4.5358017E-1,-2.6410892E0,1.3937846E0,-2.2124252E0,-1.8920437E0,-2.642947E-1,1.4841522E0,-3.8742322E-2,7.414795E-2,-2.4631171E0,8.3852696E-1,-2.6240182E-1,1.2881486E0,1.5710175E-1,-1.3370556E-1,-2.578916E-1,1.1573664E-2,1.2518229E-1,1.4379817E-1,3.683524E-2],"categories":[],"categories_nodes":[],"categories_segments":[],"categories_sizes":[],"default_left":[0,0,0,0,0,0,0,0,0,0,0,0,0,0,0,0,0,0,0,0,0],"id":0,"left_children":[1,3,5,7,9,11,-1,13,-1,-1,15,17,-1,19,-1,-1,-1,-1,-1,-1,-1],"loss_changes":[4.78725E3,1.2697087E3,6.93125E1,6.0805237E1,9.967273E1,2.7333923E2,0E0,4.043091E0,0E0,0E0,1.2463684E1,8.648256E0,0E0,1.53159485E1,0E0,0E0,0E0,0E0,0E0,0E0,0E0],"parents":[2147483647,0,0,1,1,2,2,3,3,4,4,5,5,7,7,10,10,11,11,13,13],"right_children":[2,4,6,8,10,12,-1,14,-1,-1,16,18,-1,20,-1,-1,-1,-1,-1,-1,-1],"split_conditions":[-3.637189E0,-1.7759048E0,-1.6117035E0,6.5715265E-1,-6.3029516E-1,-2.2903278E0,-2.642947E-1,-1.986179E-1,-3.8742322E-2,7.414795E-2,-1.3659564E0,-2.4834134E-2,-2.6240182E-1,4.958204E-1,1.5710175E-1,-1.3370556E-1,-2.578916E-1,1.1573664E-2,1.2518229E-1,1.4379817E-1,3.683524E-2],"split_indices":[14,10,17,7,7,12,0,26,0,0,9,20,0,28,0,0,0,0,0,0,0],"split_type":[0,0,0,0,0,0,0,0,0,0,0,0,0,0,0,0,0,0,0,0,0],"sum_hessian":[5.3914785E4,5.0431796E2,5.341047E4,3.7318588E2,1.3113206E2,1.3465712E2,5.3275812E4,3.5532562E2,1.7860283E1,1.010516E1,1.2102691E2,2.843545E1,1.0622168E2,1.139768E2,2.4134882E2,1.2455196E1,1.0857172E2,1.0810171E1,1.7625278E1,9.752654E1,1.645026E1],"tree_param":{"num_deleted":"0","num_feature":"30","num_nodes":"21","size_leaf_vector":"1"}},{"base_weights":[-2.2353191E0,3.3785832E-1,-2.257312E0,1.3266968E0,-2.2176318E-1,-1.7939973E0,-2.25861E0,6.050664E-3,1.3678492E0,-2.0411198E0,5.24328E-2,-2.2593496E0,-2.0022163E0,1.1004636E0,1.4588889E0,-1.942089E-2,-2.185106E0,-2.262311E-1,-2.2170823E0,-1.2505182E0,-2.1438281E-1,1.3346196E0,1.8501554E-2,9.5081024E-2,1.476691E-1,-1.642957E-1,-2.2483169E-1,-6.2578875E-1,-2.231882E0,-2.0926379E-1,-5.373278E-2,9.1236666E-2,1.4516257E-1,-2.1101911E-1,3.89268E-2,-2.24672E-1,-1.9925551E-1],"categories":[],"categories_nodes":[],"categories_segments":[],"categories_sizes":[],"default_left":[0,0,0,0,0,0,0,0,0,0,0,0,0,0,0,0,0,0,0,0,0,0,0,0,0,0,0,0,0,0,0,0,0,0,0,0,0],"id":1,"left_children":[1,3,5,7,-1,9,11,-1,13,15,-1,17,19,21,23,-1,25,-1,27,29,-1,31,-1,-1,-1,-1,-1,33,35,-1,-1,-1,-1,-1,-1,-1,-1],"loss_changes":[3.1999375E3,1.2157499E3,2.965625E1,1.798108E1,0E0,9.356818E1,6.09375E0,0E0,6.5667114E0,3.84292E1,0E0,1.9375E0,1.5369751E1,1.8903969E1,8.3343506E-1,0E0,9.476929E-1,0E0,8.570703E1,1.6461472E1,0E0,2.1825562E0,0E0,0E0,0E0,0E0,0E0,5.4267044E1,8.533203E0,0E0,0E0,0E0,0E0,0E0,0E0,0E0,0E0],"parents":[2147483647,0,0,1,1,2,2,3,3,5,5,6,6,8,8,9,9,11,11,12,12,13,13,14,14,16,16,18,18,19,19,21,21,27,27,28,28],"right_children":[2,4,6,8,-1,10,12,-1,14,16,-1,18,20,22,24,-1,26,-1,28,30,-1,32,-1,-1,-1,-1,-1,34,36,-1,-1,-1,-1,-1,-1,-1,-1],"split_conditions":[-2.7033043E0,-2.118653E0,-3.5291784E0,-1.748162E0,-2.2176318E-1,2.570285E0,4.777701E0,6.050664E-3,-2.2342189E-1,-1.4921248E0,5.24328E-2,1.8897588E0,8.615457E-2,1.0574026E0,1.2364602E0,-1.942089E-2,-8.5079813E-1,-2.262311E-1,-1.7759048E0,-1.5561861E0,-2.1438281E-1,2.1752284E0,1.8501554E-2,9.5081024E-2,1.476691E-1,-1.642957E-1,-2.2483169E-1,8.762634E-1,1.0999854E0,-2.0926379E-1,-5.373278E-2,9.1236666E-2,1.4516257E-1,-2.1101911E-1,3.89268E-2,-2.24672E-1,-1.9925551E-1],"split_indices":[10,12,12,2,0,2,4,0,26,10,0,4,10,27,4,0,10,0,10,2,0,4,0,0,0,0,0,2,18,0,0,0,0,0,0,0,0],"split_type":[0,0,0,0,0,0,0,0,0,0,0,0,0,0,0,0,0,0,0,0,0,0,0,0,0,0,0,0,0,0,0,0,0,0,0,0,0],"sum_hessian":[5.653027E4,4.78946E2,5.6051324E4,3.4567072E2,1.332753E2,1.6045274E2,5.589087E4,1.0958762E1,3.3471198E2,1.4510483E2,1.5347919E1,5.57223E4,1.6857036E2,8.834081E1,2.4637115E2,1.0664176E1,1.3444066E2,5.202482E4,3.6974773E3,2.828097E1,1.4028938E2,6.9982574E1,1.8358234E1,1.0182044E1,2.361891E2,1.685656E1,1.1758409E2,3.4470726E1,3.6630063E3,1.2081365E1,1.6199606E1,1.7093369E1,5.2889206E1,1.3560778E1,2.090995E1,3.441266E3,2.2174039E2],"tree_param":{"num_deleted":"0","num_feature":"30","num_nodes":"37","size_leaf_vector":"1"}},{"base_weights":[-1.98285E0,2.997121E-1,-2.001326E0,1.2639918E0,-1.9674955E-1,-1.3948048E0,-2.0031507E0,9.910264E-1,1.3468934E0,1.128585E0,-1.9812168E-1,-2.0040424E-1,-1.7729856E0,1.3340234E0,1.1501391E-1,1.3795156E0,6.710977E-2,1.3497882E-1,6.0264915E-2,-1.8656932E0,-5.4570165E-2,1.4339958E-1,8.211557E-2,-8.314036E-2,1.18908E-1,9.305176E-2,1.3984892E0,-1.9940846E0,-1.1617426E0,1.429775E-1,1.11498915E-1,-1.4088146E-1,-2.0225242E-1,8.390039E-3,-1.7567842E-1],"categories":[],"categories_nodes":[],"categories_segments":[],"categories_sizes":[],"default_left":[0,0,0,0,0,0,0,0,0,0,0,0,0,0,0,0,0,0,0,0,0,0,0,0,0,0,0,0,0,0,0,0,0,0,0],"id":2,"left_children":[1,3,5,7,-1,9,11,13,15,17,-1,-1,19,21,23,25,-1,-1,-1,27,-1,-1,-1,-1,-1,-1,29,31,33,-1,-1,-1,-1,-1,-1],"loss_changes":[2.4170156E3,1.01020624E3,6.0109375E1,5.9971313E0,0E0,2.5938174E2,8.078125E0,2.3662926E1,4.491791E0,3.07296E0,0E0,0E0,2.4847534E1,1.7381592E0,2.477208E1,6.876831E-1,0E0,0E0,0E0,1.6749695E1,0E0,0E0,0E0,0E0,0E0,0E0,3.7506104E-1,9.70459E-2,2.6042332E1,0E0,0E0,0E0,0E0,0E0,0E0],"parents":[2147483647,0,0,1,1,2,2,3,3,5,5,6,6,7,7,8,8,9,9,12,12,13,13,14,14,15,15,19,19,26,26,27,27,28,28],"right_children":[2,4,6,8,-1,10,12,14,16,18,-1,-1,20,22,24,26,-1,-1,-1,28,-1,-1,-1,-1,-1,-1,30,32,34,-1,-1,-1,-1,-1,-1],"split_conditions":[-1.6117035E0,-2.118653E0,-3.5291784E0,-2.5295192E-1,-1.9674955E-1,-3.764603E0,3.000172E0,-3.3905336E-1,-1.3893306E0,-2.0105788E-2,-1.9812168E-1,-2.0040424E-1,2.9009326E0,-1.9310697E0,9.101E1,1.2679273E-1,6.710977E-2,1.3497882E-1,6.0264915E-2,-1.4429938E0,-5.4570165E-2,1.4339958E-1,8.211557E-2,-8.314036E-2,1.18908E-1,9.305176E-2,9.917952E-1,-1.3058202E0,-6.3585496E-1,1.429775E-1,1.11498915E-1,-1.4088146E-1,-2.0225242E-1,8.390039E-3,-1.7567842E-1],"split_indices":[17,12,12,26,0,3,17,26,3,24,0,0,5,7,29,2,0,0,0,3,0,0,0,0,0,0,25,22,22,0,0,0,0,0,0],"split_type":[0,0,0,0,0,0,0,0,0,0,0,0,0,0,0,0,0,0,0,0,0,0,0,0,0,0,0,0,0,0,0,0,0,0,0],"sum_hessian":[5.729728E4,4.599409E2,5.683734E4,3.2300443E2,1.3693648E2,1.7277695E2,5.6664562E4,7.826377E1,2.4474065E2,3.2406013E1,1.4037093E2,5.643823E4,2.2633388E2,5.586669E1,2.2397076E1,2.3247714E2,1.2263512E1,2.170899E1,1.0697025E1,2.0995401E2,1.6379873E1,4.5250134E1,1.0616558E1,1.2026132E1,1.0370943E1,1.1454604E1,2.2102254E2,1.7601793E2,3.393607E1,1.9541423E2,2.5608305E1,1.0498647E1,1.6551929E2,1.1248267E1,2.2687803E1],"tree_param":{"num_deleted":"0","num_feature":"30","num_nodes":"35","size_leaf_vector":"1"}},{"base_weights":[-1.8017145E0,3.9149955E-1,-1.8199219E0,1.2193999E0,-1.4643527E0,-1.3438578E0,-1.8210709E0,1.2731388E0,-2.7082046E-2,8.503275E-2,-1.6547728E0,7.3538E-1,-1.8318108E-1,-1.8229185E-1,-1.7876781E0,1.3428499E0,1.0572511E0,-1.7994407E-1,-6.5394424E-2,1.05362125E-2,1.1906177E-1,-1.8040006E0,-1.4498008E0,1.3604097E-1,8.787644E-2,-1.5079932E-2,1.2335199E0,-1.4239637E0,-1.8088201E0,-1.0559024E0,-1.8299155E-1,7.457458E-2,1.3169575E-1,-1.7721124E-1,-3.5516035E-2,-1.8104675E-1,-1.24582045E-1,-5.6320395E-2,-1.7678705E-1],"categories":[],"categories_nodes":[],"categories_segments":[],"categories_sizes":[],"default_left":[0,0,0,0,0,0,0,0,0,0,0,0,0,0,0,0,0,0,0,0,0,0,0,0,0,0,0,0,0,0,0,0,0,0,0,0,0,0,0],"id":3,"left_children":[1,3,5,7,9,11,13,15,-1,-1,17,19,-1,-1,21,23,25,-1,-1,-1,-1,27,29,-1,-1,-1,31,33,35,37,-1,-1,-1,-1,-1,-1,-1,-1,-1],"loss_changes":[2.2677031E3,7.212066E2,2.8359375E1,2.631836E1,6.527231E1,1.4276663E2,2.03125E-1,3.294159E0,0E0,0E0,1.8257141E1,7.677889E0,0E0,0E0,1.390918E1,7.038574E-1,1.746737E1,0E0,0E0,0E0,0E0,2.6503906E0,1.9503723E1,0E0,0E0,0E0,1.9046631E0,1.441851E1,3.5546875E-1,2.4496948E1,0E0,0E0,0E0,0E0,0E0,0E0,0E0,0E0,0E0],"parents":[2147483647,0,0,1,1,2,2,3,3,4,4,5,5,6,6,7,7,10,10,11,11,14,14,15,15,16,16,21,21,22,22,26,26,27,27,28,28,29,29],"right_children":[2,4,6,8,10,12,14,16,-1,-1,18,20,-1,-1,22,24,26,-1,-1,-1,-1,28,30,-1,-1,-1,32,34,36,38,-1,-1,-1,-1,-1,-1,-1,-1,-1],"split_conditions":[-3.637189E0,-1.8912696E0,-1.6117035E0,1.1075249E0,-6.5089124E-1,-2.1604545E0,2.442026E0,1.0574026E0,-2.7082046E-2,8.503275E-2,4.402947E0,2.1752284E0,-1.8318108E-1,-1.8229185E-1,1.5335054E0,8.326149E-1,-4.5614442E-1,-1.7994407E-1,-6.5394424E-2,1.05362125E-2,1.1906177E-1,-2.2000358E0,1.365556E0,1.3604097E-1,8.787644E-2,-1.5079932E-2,-7.688729E-1,-6.1761327E-2,1.7794089E0,-3.2680857E-1,-1.8299155E-1,7.457458E-2,1.3169575E-1,-1.7721124E-1,-3.5516035E-2,-1.8104675E-1,-1.24582045E-1,-5.6320395E-2,-1.7678705E-1],"split_indices":[14,10,17,7,7,16,4,27,0,0,4,4,0,0,17,16,15,0,0,0,0,14,2,0,0,0,13,21,22,14,0,0,0,0,0,0,0,0,0],"split_type":[0,0,0,0,0,0,0,0,0,0,0,0,0,0,0,0,0,0,0,0,0,0,0,0,0,0,0,0,0,0,0,0,0,0,0,0,0,0,0],"sum_hessian":[5.676936E4,4.672325E2,5.6302125E4,3.2333493E2,1.4389758E2,1.3838863E2,5.616374E4,3.122216E2,1.1113342E1,1.0674649E1,1.3322295E2,2.6207527E1,1.121811E2,5.316854E4,2.995201E3,2.3206622E2,8.015536E1,1.1570067E2,1.7522272E1,1.1509965E1,1.4697562E1,2.853034E3,1.4216707E2,2.2174463E2,1.0321603E1,1.0224782E1,6.993058E1,3.9440166E1,2.8135938E3,7.167296E1,7.049411E1,1.1666464E1,5.8264114E1,2.9253262E1,1.0186904E1,2.803176E3,1.0417791E1,4.3417847E1,2.8255112E1],"tree_param":{"num_deleted":"0","num_feature":"30","num_nodes":"39","size_leaf_vector":"1"}},{"base_weights":[-1.6656755E0,2.6993906E-1,-1.6806448E0,1.1226999E0,-1.3825318E0,-1.682246E0,-1.1195952E0,1.1766266E0,-2.456661E-2,2.049271E-1,-1.6583943E-1,-1.682908E0,-1.4626813E0,-1.6004432E0,6.947527E-1,9.629444E-1,1.2761093E0,-9.481434E-2,1.2134477E-1,-1.6835324E0,-1.4900246E0,-1.5574685E0,-4.349793E-2,-1.6757731E-1,-7.184371E-2,-5.8009613E-2,1.3048065E-1,-1.0038338E-2,1.1034956E0,1.3296664E-1,1.0029669E0,-1.6850236E-1,-1.6409205E0,-1.6755419E0,-7.890461E-1,-1.0244714E0,-1.6713189E-1,1.3003634E-1,8.517644E-2,1.231144E-1,4.852007E-2,-1.6662751E-1,-1.2583683E-1,-1.119887E-1,-1.7092346E-1,-1.4399417E-1,9.854449E-2,1.0026914E-2,-1.6160713E-1],"categories":[],"categories_nodes":[],"categories_segments":[],"categories_sizes":[],"default_left":[0,0,0,0,0,0,0,0,0,0,0,0,0,0,0,0,0,0,0,0,0,0,0,0,0,0,0,0,0,0,0,0,0,0,0,0,0,0,0,0,0,0,0,0,0,0,0,0,0],"id":4,"left_children":[1,3,5,7,9,11,13,15,-1,17,-1,19,21,23,25,27,29,-1,-1,31,33,35,-1,-1,-1,-1,-1,-1,37,-1,39,-1,41,43,45,47,-1,-1,-1,-1,-1,-1,-1,-1,-1,-1,-1,-1,-1],"loss_changes":[1.6037812E3,6.0118085E2,4.74375E1,2.1041351E1,6.3966278E1,5.5E0,1.4005199E2,4.5264587E0,0E0,2.71998E1,0E0,4.078125E0,1.6101807E1,7.180664E0,2.724783E1,1.3573463E1,1.323822E0,0E0,0E0,6.875E-1,2.2709259E1,7.834015E0,0E0,0E0,0E0,0E0,0E0,0E0,2.839508E0,0E0,3.4017563E0,0E0,1.611377E1,8.048401E-1,4.8268578E1,2.0305334E1,0E0,0E0,0E0,0E0,0E0,0E0,0E0,0E0,0E0,0E0,0E0,0E0,0E0],"parents":[2147483647,0,0,1,1,2,2,3,3,4,4,5,5,6,6,7,7,9,9,11,11,12,12,13,13,14,14,15,15,16,16,19,19,20,20,21,21,28,28,30,30,32,32,33,33,34,34,35,35],"right_children":[2,4,6,8,10,12,14,16,-1,18,-1,20,22,24,26,28,30,-1,-1,32,34,36,-1,-1,-1,-1,-1,-1,38,-1,40,-1,42,44,46,48,-1,-1,-1,-1,-1,-1,-1,-1,-1,-1,-1,-1,-1],"split_conditions":[-1.6117035E0,-8.6728066E-1,2.723479E0,-8.4602636E-1,-1.7797871E0,4.777701E0,3.3673882E0,-1.986179E-1,-2.456661E-2,1.5350475E0,-1.6583943E-1,3.000172E0,4.0288523E-1,1.7970024E0,2.9331608E-2,2.5568E4,-3.764603E0,-9.481434E-2,1.2134477E-1,1.4074969E0,1.0431912E-1,-4.7712415E-1,-4.349793E-2,-1.6757731E-1,-7.184371E-2,-5.8009613E-2,1.3048065E-1,-1.0038338E-2,-3.3905336E-1,1.3296664E-1,6.7441E4,-1.6850236E-1,2.442026E0,-6.672461E-1,2.0616716E-1,2.1993022E-1,-1.6713189E-1,1.3003634E-1,8.517644E-2,1.231144E-1,4.852007E-2,-1.6662751E-1,-1.2583683E-1,-1.119887E-1,-1.7092346E-1,-1.4399417E-1,9.854449E-2,1.0026914E-2,-1.6160713E-1],"split_indices":[17,7,11,3,16,4,4,26,0,4,0,17,1,4,21,0,3,0,0,17,28,16,0,0,0,0,0,0,26,0,0,0,4,20,1,3,0,0,0,0,0,0,0,0,0,0,0,0,0],"split_type":[0,0,0,0,0,0,0,0,0,0,0,0,0,0,0,0,0,0,0,0,0,0,0,0,0,0,0,0,0,0,0,0,0,0,0,0,0,0,0,0,0,0,0,0,0,0,0,0,0],"sum_hessian":[5.5334637E4,4.245214E2,5.4910117E4,2.802292E2,1.4429222E2,5.475186E4,1.5825723E2,2.69739E2,1.0490165E1,2.1400366E1,1.2289185E2,5.458061E4,1.712486E2,1.2519523E2,3.3062E1,8.908033E1,1.8065868E2,1.0012572E1,1.13877945E1,5.4396816E4,1.8379463E2,1.5631577E2,1.4932835E1,1.14514854E2,1.0680372E1,1.0716499E1,2.23455E1,1.0433371E1,7.864696E1,1.4780876E2,3.2849922E1,5.25203E4,1.8765123E3,1.442325E2,3.9562126E1,2.9272617E1,1.27043144E2,4.1795162E1,3.68518E1,2.1845095E1,1.10048275E1,1.7567252E3,1.1978713E2,1.0203085E1,1.3402942E2,2.9082865E1,1.0479262E1,1.0376152E1,1.8896465E1],"tree_param":{"num_deleted":"0","num_feature":"30","num_nodes":"49","size_leaf_vector":"1"}},{"base_weights":[-1.5599105E0,3.6136648E-1,-1.5754699E0,1.0879421E0,-1.2852743E0,-1.1676172E0,-1.5764577E0,1.156442E0,-7.1068734E-2,-3.5356215E-1,-1.5608336E0,6.42282E-1,-1.5914886E-1,-1.5782629E-1,-1.5439402E0,1.1927648E0,1.5431051E-2,4.0143754E-2,-1.2262108E-1,-1.609597E-1,-1.0568588E-1,6.51746E-3,1.08647205E-1,-1.5592254E0,-1.2340674E0,8.612228E-1,1.2608296E-1,-1.1949039E0,-1.5639422E0,-1.5217117E0,-2.9945275E-1,1.2748884E-1,-6.9484286E-2,-1.5472388E-1,-5.0703485E-2,-1.5654944E-1,-1.050834E-1,-1.6115849E-1,-6.7512944E-2,-9.637175E-2,1.11367896E-1],"categories":[],"categories_nodes":[],"categories_segments":[],"categories_sizes":[],"default_left":[0,0,0,0,0,0,0,0,0,0,0,0,0,0,0,0,0,0,0,0,0,0,0,0,0,0,0,0,0,0,0,0,0,0,0,0,0,0,0,0,0],"id":5,"left_children":[1,3,5,7,9,11,13,15,-1,17,19,21,-1,-1,23,25,-1,-1,-1,-1,-1,-1,-1,27,29,31,-1,33,35,37,39,-1,-1,-1,-1,-1,-1,-1,-1,-1,-1],"loss_changes":[1.5933828E3,5.1448315E2,1.946875E1,3.754947E1,3.3275116E1,1.01958145E2,6.640625E-1,1.0282532E1,0E0,2.1157625E1,7.905884E-1,6.5118036E0,0E0,0E0,1.1427246E1,5.172638E0,0E0,0E0,0E0,0E0,0E0,0E0,0E0,2.741211E0,3.6456802E1,3.332392E1,0E0,8.551975E0,4.609375E-1,6.881607E0,3.2573944E1,0E0,0E0,0E0,0E0,0E0,0E0,0E0,0E0,0E0,0E0],"parents":[2147483647,0,0,1,1,2,2,3,3,4,4,5,5,6,6,7,7,9,9,10,10,11,11,14,14,15,15,23,23,24,24,25,25,27,27,28,28,29,29,30,30],"right_children":[2,4,6,8,10,12,14,16,-1,18,20,22,-1,-1,24,26,-1,-1,-1,-1,-1,-1,-1,28,30,32,-1,34,36,38,40,-1,-1,-1,-1,-1,-1,-1,-1,-1,-1],"split_conditions":[-3.637189E0,-1.8756604E0,-1.6117035E0,9.726024E-1,-1.7159212E-1,-2.1604545E0,2.442026E0,5.76334E-1,-7.1068734E-2,1.07E0,7.917164E-1,2.1752284E0,-1.5914886E-1,-1.5782629E-1,1.5335054E0,-2.739773E-1,1.5431051E-2,4.0143754E-2,-1.2262108E-1,-1.609597E-1,-1.0568588E-1,6.51746E-3,1.08647205E-1,-2.2000358E0,8.3757865E-1,-3.4372675E-1,1.2608296E-1,-5.4822687E-2,1.7794089E0,7.689492E-1,4.402188E-2,1.2748884E-1,-6.9484286E-2,-1.5472388E-1,-5.0703485E-2,-1.5654944E-1,-1.050834E-1,-1.6115849E-1,-6.7512944E-2,-9.637175E-2,1.11367896E-1],"split_indices":[14,12,17,9,15,16,4,16,0,29,1,4,0,0,17,26,0,0,0,0,0,0,0,14,1,26,0,12,22,23,28,0,0,0,0,0,0,0,0,0,0],"split_type":[0,0,0,0,0,0,0,0,0,0,0,0,0,0,0,0,0,0,0,0,0,0,0,0,0,0,0,0,0,0,0,0,0,0,0,0,0,0,0,0,0],"sum_hessian":[5.3281707E4,4.2785394E2,5.2853855E4,2.970991E2,1.3075485E2,1.3057018E2,5.2723285E4,2.8654327E2,1.0555812E1,3.0365856E1,1.00389E2,2.4678696E1,1.0589148E2,4.9905477E4,2.8178054E3,2.763371E2,1.0206182E1,1.656988E1,1.3795978E1,8.953224E1,1.085676E1,1.1232179E1,1.3446517E1,2.681501E3,1.3630449E2,4.9393875E1,2.2694322E2,3.752316E1,2.6439778E3,1.0374649E2,3.2558E1,3.9163357E1,1.0230517E1,2.3987267E1,1.3535893E1,2.6339585E3,1.0019315E1,9.297286E1,1.0773624E1,2.2363644E1,1.0194354E1],"tree_param":{"num_deleted":"0","num_feature":"30","num_nodes":"41","size_leaf_vector":"1"}},{"base_weights":[-1.4756616E0,3.4369388E-1,-1.490336E0,1.0546806E0,-1.2325672E0,-1.0985495E0,-1.4912895E0,1.1397021E0,1.7415E-1,-1.4019233E0,5.7759106E-2,5.999056E-1,-1.5031956E-1,-1.4436154E0,-1.492585E-1,8.2000446E-1,1.2109965E-1,-7.513031E-2,8.38964E-2,-7.965487E-2,-1.4980942E0,1.4140334E-3,9.901431E-2,-1.4557817E0,-1.1554757E0,-3.0878125E-2,1.1338521E0,-1.5466426E-1,-1.0202032E-1,-1.4763255E0,-1.3483793E0,-1.4697495E-1,-4.1104123E-2,1.24317445E-1,8.539679E-2,-1.4806391E-1,-9.2529505E-2,-1.4456396E-1,-6.0649097E-2],"categories":[],"categories_nodes":[],"categories_segments":[],"categories_sizes":[],"default_left":[0,0,0,0,0,0,0,0,0,0,0,0,0,0,0,0,0,0,0,0,0,0,0,0,0,0,0,0,0,0,0,0,0,0,0,0,0,0,0],"id":6,"left_children":[1,3,5,7,9,11,13,15,17,19,-1,21,-1,23,-1,25,-1,-1,-1,-1,27,-1,-1,29,31,-1,33,-1,-1,35,37,-1,-1,-1,-1,-1,-1,-1,-1],"loss_changes":[1.3572734E3,4.5789877E2,1.7195312E1,2.0861877E1,3.9776016E1,8.7631226E1,9.453125E-1,4.850189E0,1.6597092E1,5.5907135E0,0E0,5.6995363E0,0E0,3.088379E0,0E0,1.8007885E1,0E0,0E0,0E0,0E0,7.286377E-1,0E0,0E0,8.815918E-1,1.3427971E1,0E0,1.3820648E-1,0E0,0E0,1.2021484E0,1.503833E1,0E0,0E0,0E0,0E0,0E0,0E0,0E0,0E0],"parents":[2147483647,0,0,1,1,2,2,3,3,4,4,5,5,6,6,7,7,8,8,9,9,11,11,13,13,15,15,20,20,23,23,24,24,26,26,29,29,30,30],"right_children":[2,4,6,8,10,12,14,16,18,20,-1,22,-1,24,-1,26,-1,-1,-1,-1,28,-1,-1,30,32,-1,34,-1,-1,36,38,-1,-1,-1,-1,-1,-1,-1,-1],"split_conditions":[-3.637189E0,-1.7759048E0,-1.6117035E0,1.7239245E0,3.9914072E-1,-2.1604545E0,-1.7919981E0,-3.065771E0,1.7910353E0,-2.8752884E-1,5.7759106E-2,1.572E1,-1.5031956E-1,2.67E2,-1.492585E-1,-2.739773E-1,1.2109965E-1,-7.513031E-2,8.38964E-2,-7.965487E-2,4.8173046E-1,1.4140334E-3,9.901431E-2,1.4717505E0,-3.8291785E-1,-3.0878125E-2,1.1585951E0,-1.5466426E-1,-1.0202032E-1,2.3465502E0,-2.7903868E-3,-1.4697495E-1,-4.1104123E-2,1.24317445E-1,8.539679E-2,-1.4806391E-1,-9.2529505E-2,-1.4456396E-1,-6.0649097E-2],"split_indices":[14,10,17,17,21,16,14,6,11,20,0,29,0,29,0,26,0,0,0,0,24,0,0,16,1,0,25,0,0,21,26,0,0,0,0,0,0,0,0],"split_type":[0,0,0,0,0,0,0,0,0,0,0,0,0,0,0,0,0,0,0,0,0,0,0,0,0,0,0,0,0,0,0,0,0,0,0,0,0,0,0],"sum_hessian":[5.0817812E4,4.064226E2,5.041139E4,2.8031494E2,1.26107666E2,1.25193565E2,5.0286195E4,2.5536343E2,2.4951511E1,1.1552484E2,1.058283E1,2.3994959E1,1.0119861E2,1.359791E3,4.8926406E4,4.8843147E1,2.065203E2,1.03766365E1,1.4574874E1,1.7109148E1,9.8415695E1,1.0008283E1,1.3986677E1,1.3008136E3,5.8977463E1,1.0629433E1,3.8213715E1,8.7309616E1,1.1106077E1,1.0812489E3,2.1956468E2,4.0785122E1,1.8192339E1,2.500504E1,1.3208677E1,1.0711763E3,1.0072653E1,1.9327771E2,2.628697E1],"tree_param":{"num_deleted":"0","num_feature":"30","num_nodes":"39","size_leaf_vector":"1"}},{"base_weights":[-1.4071169E0,2.0092751E-1,-1.4189799E0,9.1026366E-1,-1.2635458E0,-1.4234791E0,-1.35889E0,-5.1108874E-2,1.0005729E0,-5.1668555E-1,-1.4238614E-1,-1.3471766E0,-1.4242171E-1,-1.0911938E0,-1.3963134E0,7.8543717E-1,1.1433665E0,-1.0886995E-1,1.4111866E-2,-1.1398563E0,-1.4242738E-1,1.6640785E-1,-1.2350087E0,-1.3298347E0,-1.4105133E0,-2.4683038E-2,9.2428523E-1,1.1851683E0,7.598992E-2,-1.4114794E-1,-7.4739784E-1,-9.099337E-2,8.0996734E-1,-7.8760904E-1,-1.331374E0,-1.3449001E0,-6.55792E-2,-9.377284E-2,-1.4124968E0,1.0669126E-1,6.8235607E-3,1.2205737E-1,9.0520956E-2,5.2317955E-2,-1.2012152E-1,1.15962505E-1,2.1609271E-2,-1.4370917E-1,1.2324648E-2,-1.3656755E-1,-6.1366893E-2,-8.6349495E-2,-1.3691162E-1,-1.4142925E-1,-1.0491779E-1],"categories":[],"categories_nodes":[],"categories_segments":[],"categories_sizes":[],"default_left":[0,0,0,0,0,0,0,0,0,0,0,0,0,0,0,0,0,0,0,0,0,0,0,0,0,0,0,0,0,0,0,0,0,0,0,0,0,0,0,0,0,0,0,0,0,0,0,0,0,0,0,0,0,0,0],"id":7,"left_children":[1,3,5,7,9,11,13,-1,15,17,-1,19,-1,21,23,25,27,-1,-1,29,-1,31,33,35,37,-1,39,41,-1,-1,43,-1,45,47,49,51,-1,-1,53,-1,-1,-1,-1,-1,-1,-1,-1,-1,-1,-1,-1,-1,-1,-1,-1],"loss_changes":[9.179375E2,3.6801224E2,1.09765625E1,3.112558E1,1.3112427E1,5.78125E-1,3.2021484E1,0E0,6.001358E0,8.434864E0,0E0,5.4714355E0,0E0,7.53125E1,8.935547E-1,1.352803E1,1.2280884E0,0E0,0E0,1.2305466E1,0E0,3.0866922E1,1.5023193E1,4.539856E0,9.272461E-1,0E0,9.939369E0,6.4315796E-2,0E0,0E0,3.1412846E1,0E0,5.5118103E0,4.070733E1,6.676941E0,4.8948364E0,0E0,0E0,7.519531E-2,0E0,0E0,0E0,0E0,0E0,0E0,0E0,0E0,0E0,0E0,0E0,0E0,0E0,0E0,0E0,0E0],"parents":[2147483647,0,0,1,1,2,2,3,3,4,4,5,5,6,6,8,8,9,9,11,11,13,13,14,14,15,15,16,16,19,19,21,21,22,22,23,23,24,24,26,26,27,27,30,30,32,32,33,33,34,34,35,35,38,38],"right_children":[2,4,6,8,10,12,14,-1,16,18,-1,20,-1,22,24,26,28,-1,-1,30,-1,32,34,36,38,-1,40,42,-1,-1,44,-1,46,48,50,52,-1,-1,54,-1,-1,-1,-1,-1,-1,-1,-1,-1,-1,-1,-1,-1,-1,-1,-1],"split_conditions":[-3.5291784E0,-1.1274976E0,1.8897588E0,1.1652853E0,-3.580633E-1,-1.3892003E0,-1.2879919E0,-5.1108874E-2,-2.6917306E-1,1.6183813E0,-1.4238614E-1,-2.3424065E-1,-1.4242171E-1,-2.5730476E0,3.84E0,9.8496914E-2,1.6428272E0,-1.0886995E-1,1.4111866E-2,4.6143513E-2,-1.4242738E-1,-4.0104038E-1,3.27E0,4.777701E0,8.73E2,-2.4683038E-2,1.5580318E0,-3.764603E0,7.598992E-2,-1.4114794E-1,-6.2814975E-1,-9.099337E-2,2.5260952E-1,1.6917096E-2,2.1473947E0,-2.475204E0,-6.55792E-2,-9.377284E-2,1.5967795E0,1.0669126E-1,6.8235607E-3,1.2205737E-1,9.0520956E-2,5.2317955E-2,-1.2012152E-1,1.15962505E-1,2.1609271E-2,-1.4370917E-1,1.2324648E-2,-1.3656755E-1,-6.1366893E-2,-8.6349495E-2,-1.3691162E-1,-1.4142925E-1,-1.0491779E-1],"split_indices":[12,3,4,4,3,20,3,0,22,4,0,12,0,12,29,21,13,0,0,4,0,19,29,4,0,0,27,3,0,0,22,0,13,28,19,12,0,0,22,0,0,0,0,0,0,0,0,0,0,0,0,0,0,0,0],"split_type":[0,0,0,0,0,0,0,0,0,0,0,0,0,0,0,0,0,0,0,0,0,0,0,0,0,0,0,0,0,0,0,0,0,0,0,0,0,0,0,0,0,0,0,0,0,0,0,0,0,0,0,0,0,0,0],"sum_hessian":[4.8103848E4,3.521582E2,4.775169E4,2.3750034E2,1.1465787E2,4.4404207E4,3.3474844E3,1.3910309E1,2.2359003E2,2.1008554E1,9.364931E1,4.4288342E2,4.3961324E4,4.1427246E2,2.933212E3,9.179317E1,1.3179686E2,1.0886667E1,1.0121887E1,1.2433139E2,3.1855203E2,4.2496964E1,3.7177548E2,5.329201E2,2.4002917E3,1.0790837E1,8.100233E1,1.1695673E2,1.4840126E1,7.194281E1,5.2388584E1,1.5746808E1,2.6750158E1,6.7511246E1,3.0426425E2,5.202958E2,1.2624311E1,1.2007439E1,2.3882844E3,6.9222725E1,1.1779605E1,1.008436E2,1.6113136E1,1.3747133E1,3.864145E1,1.6237377E1,1.0512781E1,3.907278E1,2.8438465E1,2.8952414E2,1.4740114E1,2.6674444E1,4.9362134E2,2.3736604E3,1.4624016E1],"tree_param":{"num_deleted":"0","num_feature":"30","num_nodes":"55","size_leaf_vector":"1"}},{"base_weights":[-1.350258E0,3.3128807E-1,-1.3640084E0,9.9195796E-1,-1.1014947E0,-1.0964091E0,-1.3647611E0,1.0615721E0,-3.958152E-2,2.8884342E-2,-1.2894555E0,3.9769344E-2,-1.3033485E0,-1.3069131E0,-1.366388E-1,7.2329664E-1,1.1460065E0,-7.3667355E-2,-1.3984303E-1,-6.165535E-2,-1.3733497E-1,-6.6633296E-1,-1.3170677E0,-5.4878503E-2,1.0734154E0,1.1685907E0,6.862863E-2,3.1363845E-3,-1.2974142E-1,-1.0749106E0,-1.3322551E0,1.1754861E-1,8.0736004E-2,1.242845E-1,1.0188651E-1,-1.3006444E-1,-2.785858E-2,-1.3464707E-1,-1.14404045E-1],"categories":[],"categories_nodes":[],"categories_segments":[],"categories_sizes":[],"default_left":[0,0,0,0,0,0,0,0,0,0,0,0,0,0,0,0,0,0,0,0,0,0,0,0,0,0,0,0,0,0,0,0,0,0,0,0,0,0,0],"id":8,"left_children":[1,3,5,7,9,11,13,15,-1,-1,17,-1,19,21,-1,23,25,-1,-1,-1,-1,27,29,-1,31,33,-1,-1,-1,35,37,-1,-1,-1,-1,-1,-1,-1,-1],"loss_changes":[1.0470703E3,3.493881E2,7.5390625E0,2.4799515E1,3.0841629E1,4.1024323E1,2.4296875E0,6.042267E0,0E0,0E0,5.1678925E0,0E0,4.6966248E0,7.237793E0,0E0,2.3198225E1,1.1790619E0,0E0,0E0,0E0,0E0,9.503636E0,3.0808105E0,0E0,1.4117813E-1,7.398834E-1,0E0,0E0,0E0,1.3585648E1,1.5378418E0,0E0,0E0,0E0,0E0,0E0,0E0,0E0,0E0],"parents":[2147483647,0,0,1,1,2,2,3,3,4,4,5,5,6,6,7,7,10,10,12,12,13,13,15,15,16,16,21,21,22,22,24,24,25,25,29,29,30,30],"right_children":[2,4,6,8,10,12,14,16,-1,-1,18,-1,20,22,-1,24,26,-1,-1,-1,-1,28,30,-1,32,34,-1,-1,-1,36,38,-1,-1,-1,-1,-1,-1,-1,-1],"split_conditions":[-3.637189E0,3.9203346E-1,-3.5291784E0,-3.6841083E-1,-2.3815293E0,-1.5207032E0,-1.7919981E0,2.9812E4,-3.958152E-2,2.8884342E-2,-1.5235986E0,3.9769344E-2,-9.4909906E-1,-2.205476E0,-1.366388E-1,-2.2342189E-1,1.7399769E0,-7.3667355E-2,-1.3984303E-1,-6.165535E-2,-1.3733497E-1,1.3825474E0,-1.5235986E0,-5.4878503E-2,-1.7423236E0,2.929253E-1,6.862863E-2,3.1363845E-3,-1.2974142E-1,1.8154155E0,1.836E2,1.1754861E-1,8.0736004E-2,1.242845E-1,1.0188651E-1,-1.3006444E-1,-2.785858E-2,-1.3464707E-1,-1.14404045E-1],"split_indices":[14,7,12,10,12,7,14,0,0,0,19,0,14,12,0,26,5,0,0,0,0,13,19,0,1,28,0,0,0,1,29,0,0,0,0,0,0,0,0],"split_type":[0,0,0,0,0,0,0,0,0,0,0,0,0,0,0,0,0,0,0,0,0,0,0,0,0,0,0,0,0,0,0,0,0,0,0,0,0,0,0],"sum_hessian":[4.526385E4,3.6694504E2,4.4896906E4,2.5135191E2,1.1559312E2,1.3000728E2,4.4766902E4,2.3956958E2,1.1782345E1,1.3702157E1,1.0189096E2,1.5703838E1,1.1430344E2,1.2465604E3,4.352034E4,4.9763775E1,1.898058E2,1.8056787E1,8.3834175E1,1.1479866E1,1.0282357E2,2.0491877E1,1.2260686E3,1.0618026E1,3.914575E1,1.7944824E2,1.035756E1,1.0183609E1,1.0308269E1,7.659342E1,1.1494751E3,2.5821333E1,1.3324414E1,1.1507675E2,6.437149E1,5.9183422E1,1.741E1,1.063032E3,8.64431E1],"tree_param":{"num_deleted":"0","num_feature":"30","num_nodes":"39","size_leaf_vector":"1"}},{"base_weights":[-1.3027294E0,3.1773907E-1,-1.3161004E0,9.574126E-1,-1.0530996E0,-1.0455589E0,-1.3168708E0,1.0239748E0,1.2848938E-3,-1.2191023E0,5.5705953E-2,7.012069E-2,-1.2979513E0,-1.2562754E0,-1.3185827E0,1.1164951E0,7.5383246E-1,-1.3401821E-1,-4.8882E-2,-8.347746E-2,-1.3378483E-1,-1.2878802E0,-9.16197E-1,-1.3190009E-1,-1.1481097E0,6.552187E-2,1.1443744E-1,-6.184408E-2,1.049105E0,-1.299873E0,-9.8453903E-1,-1.2340794E0,-3.6477968E-1,-6.575386E-1,-1.2680393E0,7.802578E-2,1.1360555E-1,-7.845156E-2,-1.3058339E-1,-2.6531268E-2,-1.3014261E-1,-1.3402356E-1,-6.657984E-2,1.5410203E-2,-9.547509E-2,-1.2453015E-1,9.008142E-3,-8.063075E-2,-1.320121E-1],"categories":[],"categories_nodes":[],"categories_segments":[],"categories_sizes":[],"default_left":[0,0,0,0,0,0,0,0,0,0,0,0,0,0,0,0,0,0,0,0,0,0,0,0,0,0,0,0,0,0,0,0,0,0,0,0,0,0,0,0,0,0,0,0,0,0,0,0,0],"id":9,"left_children":[1,3,5,7,9,11,13,15,-1,17,-1,-1,19,21,23,25,27,-1,-1,-1,-1,29,31,-1,33,-1,-1,-1,35,37,39,41,43,45,47,-1,-1,-1,-1,-1,-1,-1,-1,-1,-1,-1,-1,-1,-1],"loss_changes":[9.185469E2,3.058006E2,7.3828125E0,1.4920166E1,3.0365723E1,5.5671265E1,2.6953125E0,4.70372E0,0E0,8.275406E0,0E0,0E0,8.9523315E-1,1.1421631E1,1.3828125E0,1.3488007E0,2.4831154E1,0E0,0E0,0E0,0E0,2.6137695E0,1.7632126E1,0E0,5.4847565E0,0E0,0E0,0E0,2.7033615E-1,2.1287842E0,9.8713875E0,3.0299149E0,1.2129607E1,1.02955675E1,9.849701E-1,0E0,0E0,0E0,0E0,0E0,0E0,0E0,0E0,0E0,0E0,0E0,0E0,0E0,0E0],"parents":[2147483647,0,0,1,1,2,2,3,3,4,4,5,5,6,6,7,7,9,9,12,12,13,13,14,14,15,15,16,16,21,21,22,22,24,24,28,28,29,29,30,30,31,31,32,32,33,33,34,34],"right_children":[2,4,6,8,10,12,14,16,-1,18,-1,-1,20,22,24,26,28,-1,-1,-1,-1,30,32,-1,34,-1,-1,-1,36,38,40,42,44,46,48,-1,-1,-1,-1,-1,-1,-1,-1,-1,-1,-1,-1,-1,-1],"split_conditions":[-3.637189E0,-1.7759048E0,-3.5291784E0,-1.8756604E0,3.9914072E-1,-2.1604545E0,-1.7919981E0,1.0574026E0,1.2848938E-3,4.402947E0,5.5705953E-2,7.012069E-2,-1.4749148E0,2.1752284E0,4.777701E0,-2.00299E0,-2.572761E-1,-1.3401821E-1,-4.8882E-2,-8.347746E-2,-1.3378483E-1,2.67E2,-1.6752386E-1,-1.3190009E-1,-4.7712415E-1,6.552187E-2,1.1443744E-1,-6.184408E-2,-1.986179E-1,-2.205476E0,-5.701381E-1,1.6732477E0,1.96E1,1.5959964E0,-1.5778201E0,7.802578E-2,1.1360555E-1,-7.845156E-2,-1.3058339E-1,-2.6531268E-2,-1.3014261E-1,-1.3402356E-1,-6.657984E-2,1.5410203E-2,-9.547509E-2,-1.2453015E-1,9.008142E-3,-8.063075E-2,-1.320121E-1],"split_indices":[14,10,12,12,21,16,14,27,0,4,0,0,19,4,4,19,26,0,0,0,0,29,21,0,16,0,0,0,26,12,6,11,29,10,19,0,0,0,0,0,0,0,0,0,0,0,0,0,0],"split_type":[0,0,0,0,0,0,0,0,0,0,0,0,0,0,0,0,0,0,0,0,0,0,0,0,0,0,0,0,0,0,0,0,0,0,0,0,0,0,0,0,0,0,0,0,0,0,0,0,0],"sum_hessian":[4.2373094E4,3.465836E2,4.202651E4,2.3651865E2,1.1006494E2,1.2321143E2,4.19033E4,2.2087013E2,1.5648506E1,9.999829E1,1.0066652E1,1.533086E1,1.0788058E2,1.1714327E3,4.0731867E4,1.6218933E2,5.8680805E1,8.506025E1,1.4938043E1,1.0294261E1,9.758631E1,1.0692738E3,1.0215893E2,4.0625473E4,1.06396095E2,1.0640408E1,1.5154892E2,1.0196819E1,4.8483986E1,1.0254468E3,4.382697E1,6.4016525E1,3.8142406E1,2.2174438E1,8.422166E1,1.4285962E1,3.4198025E1,1.3241552E1,1.01220526E3,1.396604E1,2.986093E1,5.2795742E1,1.1220779E1,2.0686954E1,1.745545E1,1.2041769E1,1.0132669E1,1.0207574E1,7.4014084E1],"tree_param":{"num_deleted":"0","num_feature":"30","num_nodes":"49","size_leaf_vector":"1"}},{"base_weights":[-1.2624785E0,3.0543083E-1,-1.2755548E0,9.4555324E-1,-9.7030574E-1,-8.7942743E-1,-1.2765661E0,1.0011148E0,7.3582153E-3,-1.2228364E0,-2.8562328E-1,5.665441E-1,-1.287683E-1,-1.2790537E0,-1.2323442E0,6.123263E-1,1.0995201E0,-6.3138925E-2,-1.302898E-1,7.0013754E-2,-8.6384796E-2,8.853356E-3,9.643169E-2,-1.2795548E-1,-1.1955267E0,-1.252945E0,-8.465387E-1,1.0982583E-1,-7.381676E-2,6.876553E-2,1.1270069E0,-1.2559397E0,-6.0433257E-1,-8.3771247E-1,-1.2589178E0,-1.1888598E0,1.3528459E-1,1.1590983E-1,8.64849E-2,-1.2789337E-1,-8.898524E-2,-1.1923742E-1,1.7005984E-2,-4.117104E-2,-1.2386676E-1,-1.2612383E-1,-7.578354E-2,-1.3077365E-1,-4.1543163E-2,1.06682315E-1,-9.557768E-2],"categories":[],"categories_nodes":[],"categories_segments":[],"categories_sizes":[],"default_left":[0,0,0,0,0,0,0,0,0,0,0,0,0,0,0,0,0,0,0,0,0,0,0,0,0,0,0,0,0,0,0,0,0,0,0,0,0,0,0,0,0,0,0,0,0,0,0,0,0,0,0],"id":10,"left_children":[1,3,5,7,9,11,13,15,-1,17,19,21,-1,23,25,27,29,-1,-1,-1,-1,-1,-1,-1,31,33,35,-1,-1,-1,37,39,41,43,45,47,49,-1,-1,-1,-1,-1,-1,-1,-1,-1,-1,-1,-1,-1,-1],"loss_changes":[8.102656E2,2.6838086E2,1.4578125E1,1.0516937E1,1.8657005E1,6.152401E1,2.7148438E0,7.1860046E0,0E0,2.9655762E0,1.8231058E1,4.358026E0,0E0,1.953125E-2,1.5695557E1,2.9520966E1,1.0666351E0,0E0,0E0,0E0,0E0,0E0,0E0,0E0,7.6564026E0,3.9040527E0,3.7114906E1,0E0,0E0,0E0,2.6734924E-1,6.536865E-1,1.1028337E1,4.843136E0,1.3334961E0,6.9617996E0,3.0821909E1,0E0,0E0,0E0,0E0,0E0,0E0,0E0,0E0,0E0,0E0,0E0,0E0,0E0,0E0],"parents":[2147483647,0,0,1,1,2,2,3,3,4,4,5,5,6,6,7,7,9,9,10,10,11,11,13,13,14,14,15,15,16,16,24,24,25,25,26,26,30,30,31,31,32,32,33,33,34,34,35,35,36,36],"right_children":[2,4,6,8,10,12,14,16,-1,18,20,22,-1,24,26,28,30,-1,-1,-1,-1,-1,-1,-1,32,34,36,-1,-1,-1,38,40,42,44,46,48,50,-1,-1,-1,-1,-1,-1,-1,-1,-1,-1,-1,-1,-1,-1],"split_conditions":[-3.637189E0,2.3078063E-1,-1.6117035E0,5.314718E-1,2.0255914E0,-2.1604545E0,2.442026E0,-2.739773E-1,7.3582153E-3,-5.660344E-1,9.2603E4,2.1752284E0,-1.287683E-1,3.031279E0,1.5335054E0,6.328504E-1,1.7262541E0,-6.3138925E-2,-1.302898E-1,7.0013754E-2,-8.6384796E-2,8.853356E-3,9.643169E-2,-1.2795548E-1,-3.635875E-2,-2.2000358E0,8.3757865E-1,1.0982583E-1,-7.381676E-2,6.876553E-2,1.0611056E0,-7.6990026E-1,-1.4034754E-1,9.592599E-1,1.2032214E0,1.156471E0,7.14E0,1.1590983E-1,8.64849E-2,-1.2789337E-1,-8.898524E-2,-1.1923742E-1,1.7005984E-2,-4.117104E-2,-1.2386676E-1,-1.2612383E-1,-7.578354E-2,-1.3077365E-1,-4.1543163E-2,1.06682315E-1,-9.557768E-2],"split_indices":[14,7,17,16,4,16,4,26,0,22,0,4,0,7,17,27,4,0,0,0,0,0,0,0,5,14,1,0,0,0,25,1,27,2,26,19,29,0,0,0,0,0,0,0,0,0,0,0,0,0,0],"split_type":[0,0,0,0,0,0,0,0,0,0,0,0,0,0,0,0,0,0,0,0,0,0,0,0,0,0,0,0,0,0,0,0,0,0,0,0,0,0,0,0,0,0,0,0,0,0,0,0,0,0,0],"sum_hessian":[3.9500523E4,3.2652185E2,3.9174E4,2.1759746E2,1.0892439E2,1.019846E2,3.9072016E4,2.044236E2,1.3173867E1,7.900068E1,2.9923716E1,2.236915E1,7.961545E1,3.696477E4,2.107246E3,4.2749104E1,1.616745E2,1.0478442E1,6.852223E1,1.0985215E1,1.89385E1,1.0715144E1,1.1654006E1,3.673015E4,2.3462178E2,1.998296E3,1.0895003E2,3.1574724E1,1.1174378E1,1.1742438E1,1.4993205E2,2.1184894E2,2.277285E1,3.0339975E1,1.967956E3,8.062765E1,2.8322382E1,1.3053195E2,1.9400105E1,1.969828E2,1.4866121E1,1.2637045E1,1.0135805E1,1.5693236E1,1.4646739E1,1.9573744E3,1.0581575E1,6.928728E1,1.1340365E1,1.529007E1,1.3032311E1],"tree_param":{"num_deleted":"0","num_feature":"30","num_nodes":"51","size_leaf_vector":"1"}},{"base_weights":[-1.2280421E0,2.506592E-1,-1.2395649E0,8.941532E-1,-1.23809375E-1,-1.240694E0,-9.132879E-1,-1.14232665E-2,9.481789E-1,-1.2444067E0,-1.1891327E0,-1.5010375E-1,-1.1244318E0,1.0601833E0,6.4041775E-1,-1.1358289E0,-1.24482036E-1,-7.620496E-2,-1.2021767E0,-9.336951E-2,9.270264E-2,-1.2680417E-1,-4.829612E-2,1.0934402E0,6.552555E-2,2.4124631E-1,1.0691824E-1,-7.0853525E-1,-1.241881E-1,-8.829859E-2,8.7844424E-2,-2.4874997E-3,-1.2071297E0,7.219633E-2,1.1394948E-1,-3.961993E-2,8.993183E-2,-1.1901244E-1,7.3488125E-5,-1.2283596E-1,-9.033416E-2],"categories":[],"categories_nodes":[],"categories_segments":[],"categories_sizes":[],"default_left":[0,0,0,0,0,0,0,0,0,0,0,0,0,0,0,0,0,0,0,0,0,0,0,0,0,0,0,0,0,0,0,0,0,0,0,0,0,0,0,0,0],"id":11,"left_children":[1,3,5,7,-1,9,11,-1,13,15,17,19,21,23,25,27,-1,29,31,-1,-1,-1,-1,33,-1,35,-1,37,-1,-1,-1,-1,39,-1,-1,-1,-1,-1,-1,-1,-1],"loss_changes":[6.2551953E2,2.7371323E2,1.2285156E1,1.0963776E1,0E0,5.4609375E0,2.0676163E1,0E0,5.844101E0,1.09375E-1,3.5613037E1,2.550014E1,8.707634E0,1.1313477E0,8.816219E0,5.4556885E0,0E0,2.3542505E1,1.414502E1,0E0,0E0,0E0,0E0,1.321106E0,0E0,1.2415741E1,0E0,1.0292247E1,0E0,0E0,0E0,0E0,1.4502441E1,0E0,0E0,0E0,0E0,0E0,0E0,0E0,0E0],"parents":[2147483647,0,0,1,1,2,2,3,3,5,5,6,6,8,8,9,9,10,10,11,11,12,12,13,13,14,14,15,15,17,17,18,18,23,23,25,25,27,27,32,32],"right_children":[2,4,6,8,-1,10,12,-1,14,16,18,20,22,24,26,28,-1,30,32,-1,-1,-1,-1,34,-1,36,-1,38,-1,-1,-1,-1,40,-1,-1,-1,-1,-1,-1,-1,-1],"split_conditions":[-2.7033043E0,-1.9586315E0,4.777701E0,1.1098758E0,-1.23809375E-1,1.8897588E0,-4.7712415E-1,-1.14232665E-2,1.0574026E0,-2.2292297E0,-1.7759048E0,5.0249755E-1,1.19341284E-1,1.6428272E0,1.6942568E0,-6.891287E-1,-1.24482036E-1,9.624834E-2,-2.1604545E0,-9.336951E-2,9.270264E-2,-1.2680417E-1,-4.829612E-2,1.5350475E0,6.552555E-2,4.1947E4,1.0691824E-1,5.93841E-1,-1.241881E-1,-8.829859E-2,8.7844424E-2,-2.4874997E-3,1.0999854E0,7.219633E-2,1.1394948E-1,-3.961993E-2,8.993183E-2,-1.1901244E-1,7.3488125E-5,-1.2283596E-1,-9.033416E-2],"split_indices":[10,12,4,11,0,4,16,0,27,10,10,11,1,13,21,12,0,1,16,0,0,0,0,4,0,0,0,2,0,0,0,0,18,0,0,0,0,0,0,0,0],"split_type":[0,0,0,0,0,0,0,0,0,0,0,0,0,0,0,0,0,0,0,0,0,0,0,0,0,0,0,0,0,0,0,0,0,0,0,0,0,0,0,0,0],"sum_hessian":[3.6692805E4,2.8355655E2,3.640925E4,1.9826047E2,8.52961E1,3.628089E4,1.2835791E2,1.0025267E1,1.882352E2,3.3822406E4,2.458487E3,2.818686E1,1.0017106E2,1.3621666E2,5.201854E1,1.3881139E2,3.3683594E4,2.8559938E1,2.429927E3,1.639383E1,1.179303E1,8.1049286E1,1.912177E1,1.2430693E2,1.1909732E1,2.7748178E1,2.4270359E1,2.9129011E1,1.0968237E2,1.5519425E1,1.3040512E1,1.0205253E1,2.4197217E3,1.5550745E1,1.0875619E2,1.4297121E1,1.3451058E1,1.6945312E1,1.2183698E1,2.2588232E3,1.6089862E2],"tree_param":{"num_deleted":"0","num_feature":"30","num_nodes":"41","size_leaf_vector":"1"}},{"base_weights":[-1.1982076E0,2.9246375E-1,-1.2110457E0,8.934432E-1,-8.6997527E-1,-1.1193274E0,-1.2137114E0,9.509844E-1,1.21408E-2,-1.0421325E0,5.9468456E-2,2.7264312E-2,-1.1404275E0,-1.2142982E0,-9.9534184E-1,5.861114E-1,1.0390297E0,-1.1989065E-1,-3.1434014E-2,-1.1726664E0,-7.947133E-1,-1.21654E-1,-1.1886079E0,-4.4771692E-1,-1.1530601E0,-2.2614885E-2,9.826392E-1,9.3818414E-1,1.12952106E-1,-6.4011E-2,-1.1827894E0,-1.152533E0,-2.2370522E-1,-1.1910033E0,-6.055302E-2,3.9369754E-2,-1.1605734E-1,-7.041281E-2,-1.2143532E-1,7.2403766E-2,1.11951254E-1,4.1606437E-2,1.0672998E-1,-1.197625E-1,-9.6138366E-2,-7.460183E-2,-1.2390818E-1,2.7793167E-2,-8.936099E-2,-1.1306918E-1,-1.21037774E-1],"categories":[],"categories_nodes":[],"categories_segments":[],"categories_sizes":[],"default_left":[0,0,0,0,0,0,0,0,0,0,0,0,0,0,0,0,0,0,0,0,0,0,0,0,0,0,0,0,0,0,0,0,0,0,0,0,0,0,0,0,0,0,0,0,0,0,0,0,0,0,0],"id":12,"left_children":[1,3,5,7,9,11,13,15,-1,17,-1,-1,19,21,23,25,27,-1,-1,29,31,-1,33,35,37,-1,39,41,-1,-1,43,45,47,49,-1,-1,-1,-1,-1,-1,-1,-1,-1,-1,-1,-1,-1,-1,-1,-1,-1],"loss_changes":[6.507656E2,2.040771E2,6.8789062E0,8.428406E0,2.5755188E1,2.8639648E1,2.984375E0,5.1362762E0,0E0,9.842125E0,0E0,0E0,9.65979E0,4.296875E-1,7.540291E0,1.2158524E1,2.4325562E-1,0E0,0E0,3.9177246E0,1.6938221E1,0E0,2.9978027E0,1.3948005E1,1.1202393E0,0E0,7.75013E-2,4.5061264E0,0E0,0E0,1.6398926E0,8.875427E-1,1.15610075E1,1.7297363E0,0E0,0E0,0E0,0E0,0E0,0E0,0E0,0E0,0E0,0E0,0E0,0E0,0E0,0E0,0E0,0E0,0E0],"parents":[2147483647,0,0,1,1,2,2,3,3,4,4,5,5,6,6,7,7,9,9,12,12,13,13,14,14,15,15,16,16,19,19,20,20,22,22,23,23,24,24,26,26,27,27,30,30,31,31,32,32,33,33],"right_children":[2,4,6,8,10,12,14,16,-1,18,-1,-1,20,22,24,26,28,-1,-1,30,32,-1,34,36,38,-1,40,42,-1,-1,44,46,48,50,-1,-1,-1,-1,-1,-1,-1,-1,-1,-1,-1,-1,-1,-1,-1,-1,-1],"split_conditions":[-3.637189E0,-1.8912696E0,-1.7919981E0,1.0657235E0,3.9914072E-1,-2.8812456E0,4.777701E0,-3.065771E0,1.21408E-2,4.402947E0,5.9468456E-2,2.7264312E-2,2.6389647E0,1.6183813E0,-4.7712415E-1,3.792137E-2,4.402947E0,-1.1989065E-1,-3.1434014E-2,-2.2292297E0,-1.6752386E-1,-1.21654E-1,1.7794089E0,-4.5658615E-1,-1.2146025E0,-2.2614885E-2,9.101E1,-1.7924474E0,1.12952106E-1,-6.4011E-2,1.836E2,-1.0571967E0,1.79E1,-7.5574815E-2,-6.055302E-2,3.9369754E-2,-1.1605734E-1,-7.041281E-2,-1.2143532E-1,7.2403766E-2,1.11951254E-1,4.1606437E-2,1.0672998E-1,-1.197625E-1,-9.6138366E-2,-7.460183E-2,-1.2390818E-1,2.7793167E-2,-8.936099E-2,-1.1306918E-1,-1.21037774E-1],"split_indices":[14,10,14,16,21,16,4,6,0,4,0,0,4,4,16,24,4,0,0,10,21,0,22,25,19,0,29,6,0,0,29,15,29,6,0,0,0,0,0,0,0,0,0,0,0,0,0,0,0,0,0],"split_type":[0,0,0,0,0,0,0,0,0,0,0,0,0,0,0,0,0,0,0,0,0,0,0,0,0,0,0,0,0,0,0,0,0,0,0,0,0,0,0,0,0,0,0,0,0,0,0,0,0,0,0],"sum_hessian":[3.3985613E4,2.9000955E2,3.3695605E4,1.9132578E2,9.868377E1,9.6352167E2,3.2732082E4,1.778393E2,1.3486482E1,8.856254E1,1.0121231E1,1.4209346E1,9.493123E2,3.2639805E4,9.227879E1,3.605962E1,1.4177966E2,7.233378E1,1.6228762E1,8.661492E2,8.3163155E1,2.997765E4,2.662154E3,2.1492355E1,7.078644E1,1.1969857E1,2.4089762E1,7.2429886E1,6.9349785E1,1.7355139E1,8.48794E2,5.049947E1,3.2663685E1,2.6502239E3,1.1930203E1,1.0062675E1,1.1429681E1,1.0003712E1,6.0782726E1,1.05143385E1,1.3575422E1,1.5197284E1,5.72326E1,7.9135846E2,5.7435574E1,1.0552861E1,3.9946606E1,1.9012156E1,1.3651532E1,6.587937E2,1.99143E3],"tree_param":{"num_deleted":"0","num_feature":"30","num_nodes":"51","size_leaf_vector":"1"}},{"base_weights":[-1.1722603E0,2.8189948E-1,-1.1850287E0,8.3922553E-1,-8.8175625E-1,-7.668751E-1,-1.1861464E0,9.257452E-1,2.034577E-1,3.964273E-3,-1.1486233E0,5.1291015E-2,-1.1404145E0,-1.1892645E0,-1.1314304E0,1.0958303E0,6.7824554E-1,1.0193632E-1,-6.842679E-2,-1.2336268E-1,-6.011073E-2,-1.198591E-1,-7.3826596E-2,-1.1279514E0,-1.1903313E0,-1.1568929E0,-6.866463E-1,1.12615705E-1,7.620031E-2,9.996037E-2,4.319707E-1,-4.3979594E-1,-1.1550125E0,-1.1670595E0,-1.19256854E-1,-6.849456E-1,-1.1643099E0,-1.0744787E0,3.081371E-1,-9.536206E-4,1.10224165E-1,2.7105263E-2,-1.0919156E-1,-1.1829133E-1,-9.6603505E-2,-1.1688528E-1,-6.568511E-2,-1.16161935E-1,1.1598564E-2,-1.0694834E-1,-1.1802814E-1,-2.2587275E-2,-1.2175365E-1,-6.186943E-2,1.4447099E-1],"categories":[],"categories_nodes":[],"categories_segments":[],"categories_sizes":[],"default_left":[0,0,0,0,0,0,0,0,0,0,0,0,0,0,0,0,0,0,0,0,0,0,0,0,0,0,0,0,0,0,0,0,0,0,0,0,0,0,0,0,0,0,0,0,0,0,0,0,0,0,0,0,0,0,0],"id":13,"left_children":[1,3,5,7,9,11,13,15,17,-1,19,-1,21,23,25,27,29,-1,-1,-1,-1,-1,-1,31,33,35,37,-1,-1,-1,39,41,43,45,-1,47,49,51,53,-1,-1,-1,-1,-1,-1,-1,-1,-1,-1,-1,-1,-1,-1,-1,-1],"loss_changes":[5.8333203E2,1.7851224E2,1.3636719E1,1.0034912E1,2.1993034E1,4.1603287E1,3.9492188E0,6.131546E0,1.7750862E1,0E0,2.4811401E0,0E0,6.762619E-1,5.8203125E-1,1.8392578E1,1.0534668E-1,5.040283E0,0E0,0E0,0E0,0E0,0E0,0E0,9.194275E0,1.1328125E-1,4.8063965E0,3.6671535E1,0E0,0E0,0E0,1.2115489E1,1.0182472E1,1.4970703E0,1.5883789E0,0E0,1.0519154E1,1.1225586E0,7.979454E0,2.9545372E1,0E0,0E0,0E0,0E0,0E0,0E0,0E0,0E0,0E0,0E0,0E0,0E0,0E0,0E0,0E0,0E0],"parents":[2147483647,0,0,1,1,2,2,3,3,4,4,5,5,6,6,7,7,8,8,10,10,12,12,13,13,14,14,15,15,16,16,23,23,24,24,25,25,26,26,30,30,31,31,32,32,33,33,35,35,36,36,37,37,38,38],"right_children":[2,4,6,8,10,12,14,16,18,-1,20,-1,22,24,26,28,30,-1,-1,-1,-1,-1,-1,32,34,36,38,-1,-1,-1,40,42,44,46,-1,48,50,52,54,-1,-1,-1,-1,-1,-1,-1,-1,-1,-1,-1,-1,-1,-1,-1,-1],"split_conditions":[-3.637189E0,-1.7759048E0,-1.6117035E0,1.7239245E0,-2.8752884E-1,-1.4921248E0,2.442026E0,3.0755025E-1,-8.4049034E-1,3.964273E-3,-1.2581848E-1,5.1291015E-2,2.9453504E-1,-9.770104E-1,1.5335054E0,1.5267379E0,4.9459824E-1,1.0193632E-1,-6.842679E-2,-1.2336268E-1,-6.011073E-2,-1.198591E-1,-7.3826596E-2,-1.5607545E0,-1.0417085E0,-2.2000358E0,8.3757865E-1,1.12615705E-1,7.620031E-2,9.996037E-2,9.101E1,1.8785015E-1,-1.872079E0,2.1752284E0,-1.19256854E-1,-1.4177868E-1,2.49E0,-1.0187751E0,3.5208195E-2,-9.536206E-4,1.10224165E-1,2.7105263E-2,-1.0919156E-1,-1.1829133E-1,-9.6603505E-2,-1.1688528E-1,-6.568511E-2,-1.16161935E-1,1.1598564E-2,-1.0694834E-1,-1.1802814E-1,-2.2587275E-2,-1.2175365E-1,-6.186943E-2,1.4447099E-1],"split_indices":[14,10,17,17,20,10,4,28,13,0,21,0,21,20,17,13,20,0,0,0,0,0,0,13,14,14,1,0,0,0,29,11,1,4,0,21,29,13,28,0,0,0,0,0,0,0,0,0,0,0,0,0,0,0,0],"split_type":[0,0,0,0,0,0,0,0,0,0,0,0,0,0,0,0,0,0,0,0,0,0,0,0,0,0,0,0,0,0,0,0,0,0,0,0,0,0,0,0,0,0,0,0,0,0,0,0,0,0,0,0,0,0,0],"sum_hessian":[3.13981E4,2.7311328E2,3.1124986E4,1.8485626E2,8.825702E1,8.480345E1,3.1040184E4,1.6231169E2,2.2544584E1,2.0012451E1,6.824457E1,1.9075539E1,6.572791E1,2.9347041E4,1.6931422E3,9.41695E1,6.814218E1,1.167023E1,1.0874353E1,5.7988544E1,1.0256025E1,5.569094E1,1.0036969E1,5.199959E2,2.8827045E4,1.5999493E3,9.319282E1,8.415127E1,1.0018231E1,2.8237217E1,3.990497E1,2.0327425E1,4.9966846E2,2.5740737E3,2.625297E4,2.6199806E1,1.5737495E3,6.699401E1,2.6198812E1,2.4652296E1,1.5252671E1,1.0005355E1,1.032207E1,4.308045E2,6.886396E1,2.5637717E3,1.030193E1,1.6142355E1,1.005745E1,2.3665228E2,1.3370973E3,1.0036612E1,5.6957394E1,1.468192E1,1.15168915E1],"tree_param":{"num_deleted":"0","num_feature":"30","num_nodes":"55","size_leaf_vector":"1"}},{"base_weights":[-1.1495402E0,2.7114278E-1,-1.1623076E0,8.0854255E-1,-8.413829E-1,-7.3723507E-1,-1.1634686E0,8.976098E-1,1.8797529E-1,3.5841517E-2,-1.1134733E0,4.832204E-1,-1.17129736E-1,-1.1660583E0,-1.0983397E0,4.7520575E-1,1.0014448E0,9.540037E-2,-6.198714E-2,-8.444195E-3,1.529644E-2,-1.2001312E-1,-6.937697E-2,3.2527212E-3,8.6575754E-2,-1.1002738E0,-1.1674302E0,-9.050376E-1,-1.1303612E0,1.0854508E-1,-5.84564E-2,1.0508331E-1,6.733944E-2,-1.1151484E0,-4.4515446E-2,-1.1053785E0,-1.1682369E-1,-1.4210633E-2,-1.0019898E0,-1.1698375E0,-1.0422772E0,-9.055092E-2,-1.1366712E-1,-4.6551082E-2,-1.1304504E-1,-7.858322E-2,-1.1640972E-1,-1.1772765E-1,-9.369812E-2,-1.0832142E-1,1.2421555E-2],"categories":[],"categories_nodes":[],"categories_segments":[],"categories_sizes":[],"default_left":[0,0,0,0,0,0,0,0,0,0,0,0,0,0,0,0,0,0,0,0,0,0,0,0,0,0,0,0,0,0,0,0,0,0,0,0,0,0,0,0,0,0,0,0,0,0,0,0,0,0,0],"id":14,"left_children":[1,3,5,7,9,11,13,15,17,19,21,23,-1,25,27,29,31,-1,-1,-1,-1,-1,-1,-1,-1,33,35,37,39,-1,-1,-1,-1,41,-1,43,-1,-1,45,47,49,-1,-1,-1,-1,-1,-1,-1,-1,-1,-1],"loss_changes":[5.2533203E2,1.5530019E2,1.3296875E1,9.497978E0,2.0262379E1,4.3407677E1,3.546875E0,6.220558E0,1.4958156E1,3.091392E-1,1.5204849E0,3.7517586E0,0E0,1.1953125E0,5.8552246E0,2.1347952E1,1.2633133E0,0E0,0E0,0E0,0E0,0E0,0E0,0E0,0E0,5.1464233E0,5.46875E-2,1.1909836E1,2.081665E0,0E0,0E0,0E0,0E0,1.5224609E0,0E0,5.3146667E0,0E0,0E0,4.145157E0,1.8249512E-2,1.4601349E1,0E0,0E0,0E0,0E0,0E0,0E0,0E0,0E0,0E0,0E0],"parents":[2147483647,0,0,1,1,2,2,3,3,4,4,5,5,6,6,7,7,8,8,9,9,10,10,11,11,13,13,14,14,15,15,16,16,25,25,26,26,27,27,28,28,33,33,35,35,38,38,39,39,40,40],"right_children":[2,4,6,8,10,12,14,16,18,20,22,24,-1,26,28,30,32,-1,-1,-1,-1,-1,-1,-1,-1,34,36,38,40,-1,-1,-1,-1,42,-1,44,-1,-1,46,48,50,-1,-1,-1,-1,-1,-1,-1,-1,-1,-1],"split_conditions":[-3.637189E0,-1.7759048E0,-1.6117035E0,1.7239245E0,-2.8752884E-1,-2.2903278E0,1.4074969E0,-2.739773E-1,-8.4049034E-1,-2.5259397E0,5.925409E-2,7.582908E-2,-1.17129736E-1,-1.6151564E0,-4.4124532E-1,5.740041E-1,9.917952E-1,9.540037E-2,-6.198714E-2,-8.444195E-3,1.529644E-2,-1.2001312E-1,-6.937697E-2,3.2527212E-3,8.6575754E-2,5.1343E2,-1.1461864E0,-3.5115597E-1,1.025147E0,1.0854508E-1,-5.84564E-2,1.0508331E-1,6.733944E-2,-1.9641771E0,-4.4515446E-2,-1.5607545E0,-1.1682369E-1,-1.4210633E-2,-3.217987E-1,4.425E2,1.317543E0,-9.055092E-2,-1.1366712E-1,-4.6551082E-2,-1.1304504E-1,-7.858322E-2,-1.1640972E-1,-1.1772765E-1,-9.369812E-2,-1.0832142E-1,1.2421555E-2],"split_indices":[14,10,17,17,20,12,17,26,13,3,8,20,0,14,8,27,25,0,0,0,0,0,0,0,0,29,20,2,1,0,0,0,0,3,0,13,0,0,12,29,2,0,0,0,0,0,0,0,0,0,0],"split_type":[0,0,0,0,0,0,0,0,0,0,0,0,0,0,0,0,0,0,0,0,0,0,0,0,0,0,0,0,0,0,0,0,0,0,0,0,0,0,0,0,0,0,0,0,0,0,0,0,0,0,0],"sum_hessian":[2.8944072E4,2.5761746E2,2.8686455E4,1.7389272E2,8.372474E1,7.987095E1,2.8606584E4,1.5167679E2,2.221593E1,2.0026669E1,6.3698067E1,2.092441E1,5.894654E1,2.7496346E4,1.1102386E3,3.1028486E1,1.2064831E2,1.1310243E1,1.0905688E1,1.0017686E1,1.0008984E1,5.1255646E1,1.2442423E1,1.0104564E1,1.0819847E1,5.780698E2,2.6918275E4,1.6193828E2,9.483004E2,1.9674898E1,1.1353588E1,1.0294634E2,1.7701962E1,5.6454944E2,1.3520371E1,3.630834E2,2.6555193E4,1.8536638E1,1.4340163E2,6.463478E2,3.0195264E2,5.6573708E1,5.0797574E2,1.4428042E1,3.4865536E2,6.3961483E1,7.944015E1,6.224081E2,2.3939688E1,2.9178415E2,1.0168492E1],"tree_param":{"num_deleted":"0","num_feature":"30","num_nodes":"51","size_leaf_vector":"1"}},{"base_weights":[-1.1294674E0,2.1194357E-1,-1.1406924E0,7.937966E-1,-1.1249737E-1,-1.1444534E0,-1.0162036E0,9.8849595E-1,5.28355E-1,-7.931097E-1,-1.145349E0,-1.0660847E0,-6.7330694E-1,1.10692106E-1,6.87974E-1,9.3017304E-1,2.3773383E-1,8.7446146E-2,-1.1405033E-1,-1.0979753E0,-1.14711575E-1,-1.085284E0,-3.2357536E-2,-1.1812991E-1,-1.570587E-1,1.3548079E-2,1.0058973E-1,1.05046E-1,6.5161675E-2,-1.1382772E-1,7.609354E-1,-5.3186633E-2,-1.1075953E0,-1.1154728E0,-9.5060664E-1,7.6713115E-2,-6.438466E-1,4.1976668E-2,9.776672E-2,-9.0669625E-2,-1.13152444E-1,-6.2589966E-2,-1.1300989E-1,-7.029676E-2,-1.1516062E-1,-1.1841368E-1,-1.23052215E-2],"categories":[],"categories_nodes":[],"categories_segments":[],"categories_sizes":[],"default_left":[0,0,0,0,0,0,0,0,0,0,0,0,0,0,0,0,0,0,0,0,0,0,0,0,0,0,0,0,0,0,0,0,0,0,0,0,0,0,0,0,0,0,0,0,0,0,0],"id":15,"left_children":[1,3,5,7,-1,9,11,13,15,17,19,21,23,-1,25,27,29,-1,-1,31,-1,33,-1,-1,35,-1,-1,-1,-1,-1,37,-1,39,41,43,-1,45,-1,-1,-1,-1,-1,-1,-1,-1,-1,-1],"loss_changes":[4.0126953E2,1.7347742E2,1.1203125E1,7.4971313E0,0E0,7.15625E0,1.2683594E1,2.3833237E0,7.6969833E0,4.063063E1,8.7890625E-1,9.375366E0,2.6620987E1,0E0,4.71529E0,2.5754356E-1,3.0160473E1,0E0,0E0,4.543213E0,0E0,1.6419067E0,0E0,0E0,2.382046E1,0E0,0E0,0E0,0E0,0E0,1.8138046E0,0E0,3.4243164E0,3.1394043E0,5.58535E0,0E0,9.563441E0,0E0,0E0,0E0,0E0,0E0,0E0,0E0,0E0,0E0,0E0],"parents":[2147483647,0,0,1,1,2,2,3,3,5,5,6,6,7,7,8,8,9,9,10,10,11,11,12,12,14,14,15,15,16,16,19,19,21,21,24,24,30,30,32,32,33,33,34,34,36,36],"right_children":[2,4,6,8,-1,10,12,14,16,18,20,22,24,-1,26,28,30,-1,-1,32,-1,34,-1,-1,36,-1,-1,-1,-1,-1,38,-1,40,42,44,-1,46,-1,-1,-1,-1,-1,-1,-1,-1,-1,-1],"split_conditions":[-1.6117035E0,-2.118653E0,1.6216317E0,2.5436273E-1,-1.1249737E-1,-3.5291784E0,1.3891318E0,-2.0820878E0,-1.5600453E-1,-3.764603E0,-1.4749148E0,1.1503273E0,5.092429E-3,1.10692106E-1,-8.311328E-2,1.6961148E-1,3.792137E-2,8.7446146E-2,-1.1405033E-1,-1.3892003E0,-1.14711575E-1,4.414556E-1,-3.2357536E-2,-1.1812991E-1,-1.3668177E-1,1.3548079E-2,1.0058973E-1,1.05046E-1,6.5161675E-2,-1.1382772E-1,9.101E1,-5.3186633E-2,-1.4271978E0,-9.770104E-1,3.208446E-1,7.6713115E-2,1.0431912E-1,4.1976668E-2,9.776672E-2,-9.0669625E-2,-1.13152444E-1,-6.2589966E-2,-1.1300989E-1,-7.029676E-2,-1.1516062E-1,-1.1841368E-1,-1.23052215E-2],"split_indices":[17,12,17,28,0,12,16,7,24,3,19,23,28,0,23,15,24,0,0,20,0,25,0,0,20,0,0,0,0,0,29,0,15,20,15,0,28,0,0,0,0,0,0,0,0,0,0],"split_type":[0,0,0,0,0,0,0,0,0,0,0,0,0,0,0,0,0,0,0,0,0,0,0,0,0,0,0,0,0,0,0,0,0,0,0,0,0,0,0,0,0,0,0,0,0,0,0],"sum_hessian":[2.6632436E4,2.2086243E2,2.6411572E4,1.5417056E2,6.669186E1,2.5629057E4,7.8251575E2,8.736503E1,6.680554E1,6.741544E1,2.556164E4,6.812983E2,1.0121743E2,6.0744446E1,2.662058E1,2.7115095E1,3.969045E1,1.1361303E1,5.6054142E1,9.413919E2,2.462025E4,6.636758E2,1.7622501E1,5.0367348E1,5.0850082E1,1.02441845E1,1.6376396E1,1.7002111E1,1.0112984E1,1.0610203E1,2.9080246E1,1.6670639E1,9.2472125E2,5.362007E2,1.2747514E2,1.734461E1,3.350547E1,1.24379E1,1.6642345E1,1.0255981E2,8.2216144E2,1.682485E1,5.193758E2,5.9126476E1,6.834867E1,1.5819776E1,1.7685698E1],"tree_param":{"num_deleted":"0","num_feature":"30","num_nodes":"47","size_leaf_vector":"1"}},{"base_weights":[-1.1115043E0,2.651324E-1,-1.1245552E0,7.89596E-1,-7.253386E-1,-7.017716E-1,-1.1257452E0,8.5477084E-1,8.387428E-3,6.559595E-2,-1.0494511E0,4.5092657E-2,-1.1385792E-1,-1.0341926E0,-1.1283574E0,1.05504595E-1,6.017058E-1,6.265902E-2,-5.8357056E-2,-3.526414E-2,-1.19555354E-1,-1.0575467E0,-5.579676E-1,-1.1297491E0,-1.0366763E0,9.4521366E-2,3.2479706E-1,-8.9558476E-1,-1.1052564E0,-1.1106187E-1,5.105489E-2,-1.1303405E-1,-9.643535E-1,-8.053664E-1,-1.1381134E-1,-9.332888E-3,1.0507478E-1,-4.8556652E-2,-1.0899346E-1,-1.11473046E-1,-5.9684742E-2,-1.125556E-1,2.0670684E-3,-4.518937E-2,-1.1281481E-1],"categories":[],"categories_nodes":[],"categories_segments":[],"categories_sizes":[],"default_left":[0,0,0,0,0,0,0,0,0,0,0,0,0,0,0,0,0,0,0,0,0,0,0,0,0,0,0,0,0,0,0,0,0,0,0,0,0,0,0,0,0,0,0,0,0],"id":16,"left_children":[1,3,5,7,9,11,13,15,-1,17,19,-1,-1,21,23,-1,25,-1,-1,-1,-1,27,29,31,33,-1,35,37,39,-1,-1,-1,41,43,-1,-1,-1,-1,-1,-1,-1,-1,-1,-1,-1],"loss_changes":[4.3992773E2,1.2036629E2,1.1402344E1,6.8851776E0,2.066851E1,3.610354E1,4.6132812E0,6.377411E0,0E0,9.214722E0,5.3872566E0,0E0,0E0,7.0006714E0,1.8242188E0,0E0,5.728346E0,0E0,0E0,0E0,0E0,4.0288696E0,2.065792E1,1.171875E0,7.608856E0,0E0,1.12239275E1,1.1667557E1,1.7306519E0,0E0,0E0,0E0,1.418821E1,1.2518272E1,0E0,0E0,0E0,0E0,0E0,0E0,0E0,0E0,0E0,0E0,0E0],"parents":[2147483647,0,0,1,1,2,2,3,3,4,4,5,5,6,6,7,7,9,9,10,10,13,13,14,14,16,16,21,21,22,22,23,23,24,24,26,26,27,27,28,28,32,32,33,33],"right_children":[2,4,6,8,10,12,14,16,-1,18,20,-1,-1,22,24,-1,26,-1,-1,-1,-1,28,30,32,34,-1,36,38,40,-1,-1,-1,42,44,-1,-1,-1,-1,-1,-1,-1,-1,-1,-1,-1],"split_conditions":[-3.637189E0,-1.8912696E0,-1.6117035E0,1.0657235E0,5.6884337E-2,-2.1604545E0,-1.7919981E0,2.929253E-1,8.387428E-3,1.2915463E0,-1.5311009E0,4.5092657E-2,-1.1385792E-1,2.67E2,1.6216317E0,1.05504595E-1,5.163936E-1,6.265902E-2,-5.8357056E-2,-3.526414E-2,-1.19555354E-1,-6.695321E-1,-3.8291785E-1,4.5005426E0,-9.644959E-3,9.4521366E-2,9.101E1,-8.9035696E-1,8.999505E-1,-1.1106187E-1,5.105489E-2,-1.1303405E-1,1.7569996E0,-3.2680857E-1,-1.1381134E-1,-9.332888E-3,1.0507478E-1,-4.8556652E-2,-1.0899346E-1,-1.11473046E-1,-5.9684742E-2,-1.125556E-1,2.0670684E-3,-4.518937E-2,-1.1281481E-1],"split_indices":[14,10,17,16,15,16,14,28,0,5,16,0,0,29,17,0,20,0,0,0,0,15,1,5,8,0,29,3,12,0,0,0,10,14,0,0,0,0,0,0,0,0,0,0,0],"split_type":[0,0,0,0,0,0,0,0,0,0,0,0,0,0,0,0,0,0,0,0,0,0,0,0,0,0,0,0,0,0,0,0,0,0,0,0,0,0,0,0,0,0,0,0,0],"sum_hessian":[2.4468484E4,2.2960905E2,2.4238875E4,1.5025201E2,7.935703E1,6.968444E1,2.4169191E4,1.3735574E2,1.2896277E1,2.3298683E1,5.6058353E1,1.91409E1,5.0543545E1,6.815101E2,2.3487682E4,7.490613E1,6.2449608E1,1.25167675E1,1.0781915E1,1.0308316E1,4.575004E1,6.484875E2,3.3022568E1,2.3125332E4,3.6234964E2,2.6795767E1,3.565384E1,1.5205882E2,4.9642868E2,2.1739305E1,1.1283262E1,2.3037125E4,8.820636E1,1.1318666E2,2.4916298E2,2.3176378E1,1.2477464E1,5.002335E1,1.0203548E2,4.861763E2,1.0252377E1,7.567863E1,1.2527728E1,5.517045E1,5.8016216E1],"tree_param":{"num_deleted":"0","num_feature":"30","num_nodes":"45","size_leaf_vector":"1"}},{"base_weights":[-1.0955043E0,2.5413406E-1,-1.1086928E0,7.645343E-1,-8.271755E-1,-6.7891854E-1,-1.109926E0,8.39912E-1,1.7178534E-2,-1.123117E-1,4.485616E-3,4.1672494E-2,-1.1205345E-1,-1.1144804E0,-1.0311735E0,9.7753704E-1,4.809865E-1,-1.1153551E0,-9.728626E-1,-1.0663514E0,-4.7924832E-1,1.0466015E-1,8.132263E-1,-6.244582E-2,8.924023E-1,-1.0884572E0,-1.1194915E0,-1.0758373E0,-6.812761E-3,-4.6879336E-1,-1.0769684E0,-8.7740004E-1,4.1036066E-1,9.86981E-2,3.9554853E-2,1.03433885E-1,5.887244E-2,-1.09167136E-1,-6.640524E-2,-1.1197638E-1,-9.0606354E-2,-7.546548E-2,-1.1154317E-1,-1.0752026E-1,2.265017E-2,-1.0992271E-1,-9.281654E-2,1.8436702E-2,-1.1403524E-1,1.3488714E-1,-6.687244E-2],"categories":[],"categories_nodes":[],"categories_segments":[],"categories_sizes":[],"default_left":[0,0,0,0,0,0,0,0,0,0,0,0,0,0,0,0,0,0,0,0,0,0,0,0,0,0,0,0,0,0,0,0,0,0,0,0,0,0,0,0,0,0,0,0,0,0,0,0,0,0,0],"id":17,"left_children":[1,3,5,7,9,11,13,15,-1,-1,-1,-1,-1,17,19,21,23,25,27,29,31,-1,33,-1,35,37,39,41,-1,43,45,47,49,-1,-1,-1,-1,-1,-1,-1,-1,-1,-1,-1,-1,-1,-1,-1,-1,-1,-1],"loss_changes":[3.998711E2,1.2098006E2,1.103125E1,6.497696E0,1.8219536E1,3.249414E1,6.8007812E0,6.0318527E0,0E0,0E0,0E0,0E0,0E0,1.5117188E0,2.3277222E1,2.1759796E-1,1.8044664E1,1.09375E0,1.2634216E1,6.7973633E0,2.7006052E1,0E0,1.9577274E0,0E0,6.166363E-1,3.1071777E0,3.3203125E-2,7.147217E-1,0E0,9.462063E0,2.7229004E0,1.48087845E1,2.5147554E1,0E0,0E0,0E0,0E0,0E0,0E0,0E0,0E0,0E0,0E0,0E0,0E0,0E0,0E0,0E0,0E0,0E0,0E0],"parents":[2147483647,0,0,1,1,2,2,3,3,4,4,5,5,6,6,7,7,13,13,14,14,15,15,16,16,17,17,18,18,19,19,20,20,22,22,24,24,25,25,26,26,27,27,29,29,30,30,31,31,32,32],"right_children":[2,4,6,8,10,12,14,16,-1,-1,-1,-1,-1,18,20,22,24,26,28,30,32,-1,34,-1,36,38,40,42,-1,44,46,48,50,-1,-1,-1,-1,-1,-1,-1,-1,-1,-1,-1,-1,-1,-1,-1,-1,-1,-1],"split_conditions":[-3.637189E0,5.3320074E-1,-1.6117035E0,-1.7759048E0,3.908048E0,-2.1604545E0,2.442026E0,1.0574026E0,1.7178534E-2,-1.123117E-1,4.485616E-3,4.1672494E-2,-1.1205345E-1,3.031279E0,1.5335054E0,-3.764603E0,-2.3636469E-1,-8.076299E-1,-3.635875E-2,-2.2000358E0,1.3897197E-1,1.0466015E-1,4.9374017E-1,-6.244582E-2,7.756874E-1,2.3465502E0,1.644E3,-1.1509374E0,-6.812761E-3,-1.9821884E-1,1.3904194E0,-2.3216711E-1,7.14E0,9.86981E-2,3.9554853E-2,1.03433885E-1,5.887244E-2,-1.09167136E-1,-6.640524E-2,-1.1197638E-1,-9.0606354E-2,-7.546548E-2,-1.1154317E-1,-1.0752026E-1,2.265017E-2,-1.0992271E-1,-9.281654E-2,1.8436702E-2,-1.1403524E-1,1.3488714E-1,-6.687244E-2],"split_indices":[14,7,17,10,4,16,4,27,0,0,0,0,0,7,17,3,26,14,5,14,25,0,27,0,25,21,29,16,0,12,5,26,29,0,0,0,0,0,0,0,0,0,0,0,0,0,0,0,0,0,0],"split_type":[0,0,0,0,0,0,0,0,0,0,0,0,0,0,0,0,0,0,0,0,0,0,0,0,0,0,0,0,0,0,0,0,0,0,0,0,0,0,0,0,0,0,0,0,0,0,0,0,0,0,0],"sum_hessian":[2.244811E4,2.1706036E2,2.2231049E4,1.4765645E2,6.940391E1,6.519192E1,2.2165857E4,1.3062799E2,1.7028458E1,5.1603348E1,1.7800564E1,1.8744186E1,4.6447735E1,2.0941637E4,1.2242192E3,9.3177025E1,3.7450966E1,2.0806238E4,1.3539828E2,1.1499905E3,7.422883E1,6.182188E1,3.1355148E1,1.0017319E1,2.7433647E1,2.8082944E3,1.7997945E4,1.2139257E2,1.4005715E1,2.0863852E1,1.1291266E3,5.128813E1,2.2940697E1,2.1180853E1,1.0174296E1,1.7055843E1,1.0377803E1,2.7856265E3,2.2668034E1,1.797077E4,2.7174623E1,1.5524034E1,1.0586853E2,1.0852408E1,1.0011444E1,9.7664856E2,1.5247804E2,1.0239842E1,4.104829E1,1.21358185E1,1.0804877E1],"tree_param":{"num_deleted":"0","num_feature":"30","num_nodes":"51","size_leaf_vector":"1"}},{"base_weights":[-1.0811424E0,2.4447285E-1,-1.0944977E0,7.3512334E-1,-7.8980064E-1,-9.604094E-1,-1.0985876E0,8.557434E-1,2.305238E-1,3.099053E-2,-1.0663701E0,-1.0270255E0,-4.5025048E-1,-1.0995579E0,-7.654214E-1,9.4210994E-1,-6.958201E-5,-3.5618242E-2,1.02620795E-1,-6.954615E-2,-1.13970555E-1,-1.769985E-2,-1.0479127E0,-7.755474E-1,-2.149312E-2,-1.1033958E0,-1.0561932E0,-4.7134343E-3,-9.991329E-1,1.0318638E0,5.0027717E-2,-1.0810958E0,-6.343646E-1,2.3479087E-2,-1.1145442E-1,-8.139323E-2,6.71013E-2,-1.1044269E-1,-9.840898E-1,-8.315527E-1,-1.0695006E0,-6.1810017E-2,-1.0902339E-1,8.690175E-2,1.1388562E-1,-1.10109404E-1,-6.366824E-2,4.1837547E-2,-1.0912635E-1,-1.1027366E-1,-7.1367286E-2,1.8503318E-3,-1.0752254E-1,-1.0779221E-1,-7.781343E-2],"categories":[],"categories_nodes":[],"categories_segments":[],"categories_sizes":[],"default_left":[0,0,0,0,0,0,0,0,0,0,0,0,0,0,0,0,0,0,0,0,0,0,0,0,0,0,0,0,0,0,0,0,0,0,0,0,0,0,0,0,0,0,0,0,0,0,0,0,0,0,0,0,0,0,0],"id":18,"left_children":[1,3,5,7,9,11,13,15,17,-1,19,21,23,25,27,29,-1,-1,-1,-1,-1,-1,31,33,35,37,39,-1,41,43,-1,45,47,-1,-1,-1,-1,-1,49,51,53,-1,-1,-1,-1,-1,-1,-1,-1,-1,-1,-1,-1,-1,-1],"loss_changes":[3.644375E2,1.05113266E2,1.0113281E1,8.337776E0,2.0635185E1,2.0293884E1,5.544922E0,8.344719E0,1.3634003E1,0E0,6.64505E-1,9.391968E0,1.0070175E1,2.1132812E0,1.0134705E1,3.547493E0,0E0,0E0,0E0,0E0,0E0,0E0,6.536377E0,1.4336222E1,1.8231634E1,1.1367188E0,3.9677734E0,0E0,9.1293335E-1,4.7789764E-1,0E0,3.616272E0,2.0424044E1,0E0,0E0,0E0,0E0,0E0,4.4757385E0,1.9772575E1,2.916626E0,0E0,0E0,0E0,0E0,0E0,0E0,0E0,0E0,0E0,0E0,0E0,0E0,0E0,0E0],"parents":[2147483647,0,0,1,1,2,2,3,3,4,4,5,5,6,6,7,7,8,8,10,10,11,11,12,12,13,13,14,14,15,15,22,22,23,23,24,24,25,25,26,26,28,28,29,29,31,31,32,32,38,38,39,39,40,40],"right_children":[2,4,6,8,10,12,14,16,18,-1,20,22,24,26,28,30,-1,-1,-1,-1,-1,-1,32,34,36,38,40,-1,42,44,-1,46,48,-1,-1,-1,-1,-1,50,52,54,-1,-1,-1,-1,-1,-1,-1,-1,-1,-1,-1,-1,-1,-1],"split_conditions":[-3.637189E0,5.3320074E-1,-1.7919981E0,1.213178E0,-2.0665903E0,2.1752284E0,4.777701E0,1.6244669E0,9.101E1,3.099053E-2,-1.4908701E0,-2.205476E0,4.0288523E-1,1.6183813E0,-4.7712415E-1,9.3141747E-1,-6.958201E-5,-3.5618242E-2,1.02620795E-1,-6.954615E-2,-1.13970555E-1,-1.769985E-2,1.836E2,-5.5435133E-1,1.0999854E0,2.5015008E0,-2.475204E0,-4.7134343E-3,-6.497665E-1,3.908048E0,5.0027717E-2,1.66748E5,-1.4092972E0,2.3479087E-2,-1.1145442E-1,-8.139323E-2,6.71013E-2,-1.1044269E-1,-6.531932E-2,3.99E0,1.3115067E0,-6.1810017E-2,-1.0902339E-1,8.690175E-2,1.1388562E-1,-1.10109404E-1,-6.366824E-2,4.1837547E-2,-1.0912635E-1,-1.1027366E-1,-7.1367286E-2,1.8503318E-3,-1.0752254E-1,-1.0779221E-1,-7.781343E-2],"split_indices":[14,7,14,20,9,4,4,18,29,0,12,12,1,4,16,15,0,0,0,0,0,0,29,16,18,7,12,0,14,4,0,0,10,0,0,0,0,0,9,29,18,0,0,0,0,0,0,0,0,0,0,0,0,0,0],"split_type":[0,0,0,0,0,0,0,0,0,0,0,0,0,0,0,0,0,0,0,0,0,0,0,0,0,0,0,0,0,0,0,0,0,0,0,0,0,0,0,0,0,0,0,0,0,0,0,0,0,0,0,0,0,0,0],"sum_hessian":[2.0569217E4,2.0498918E2,2.0364229E4,1.3922926E2,6.575993E1,6.0975214E2,1.9754477E4,1.1180691E2,2.7422346E1,1.319057E1,5.2569363E1,5.384312E2,7.1320915E1,1.9694824E4,5.9652187E1,1.0147388E2,1.0333035E1,1.6101841E1,1.1320507E1,1.0408675E1,4.2160686E1,1.314048E1,5.252908E2,4.0093372E1,3.1227541E1,1.8071035E4,1.6237878E3,1.4939359E1,4.471283E1,8.323095E1,1.8242928E1,4.8477795E2,4.051281E1,1.0149984E1,2.9943386E1,1.4481233E1,1.674631E1,1.7908006E4,1.6302939E2,9.436115E1,1.5294266E3,1.01297245E1,3.4583103E1,3.661851E1,4.6612434E1,4.624887E2,2.2289228E1,1.2286898E1,2.822591E1,1.11173546E2,5.185585E1,2.122867E1,7.3132484E1,1.4838384E3,4.55883E1],"tree_param":{"num_deleted":"0","num_feature":"30","num_nodes":"55","size_leaf_vector":"1"}},{"base_weights":[-1.0680504E0,2.346253E-1,-1.0816017E0,7.051313E-1,-7.5753784E-1,-6.163025E-1,-1.0830104E0,7.890849E-1,1.20542385E-2,3.684947E-2,-9.95194E-1,4.045207E-2,-1.091548E-1,-1.0883718E0,-9.9173737E-1,1.01529695E-1,4.8878124E-1,-1.1375717E-1,-4.34899E-2,-1.0894004E0,-9.261781E-1,-1.0316685E0,-4.1227084E-1,-3.2873888E-2,7.453293E-1,-1.0573852E0,-1.0943466E-1,-1.0005955E0,-1.2741241E-2,-4.1087225E-2,-1.0438899E0,-8.925935E-1,4.978677E-1,3.2785475E-2,8.879666E-2,-1.0776528E-1,-9.79376E-2,-1.0920473E-1,-4.3295648E-2,-1.0526129E-1,-6.744356E-2,-1.1032505E-1,-1.3423771E-2,-4.3361966E-2,1.4550388E-1],"categories":[],"categories_nodes":[],"categories_segments":[],"categories_sizes":[],"default_left":[0,0,0,0,0,0,0,0,0,0,0,0,0,0,0,0,0,0,0,0,0,0,0,0,0,0,0,0,0,0,0,0,0,0,0,0,0,0,0,0,0,0,0,0,0],"id":19,"left_children":[1,3,5,7,9,11,13,15,-1,-1,17,-1,-1,19,21,-1,23,-1,-1,25,27,29,31,-1,33,35,-1,37,-1,-1,39,41,43,-1,-1,-1,-1,-1,-1,-1,-1,-1,-1,-1,-1],"loss_changes":[3.3267578E2,9.1422035E1,1.1546875E1,6.4119415E0,1.7255844E1,2.8860292E1,8.015625E0,7.367256E0,0E0,0E0,3.6840324E0,0E0,0E0,1.9160156E0,2.368689E1,0E0,1.1080109E1,0E0,0E0,1.6035156E0,6.839508E0,6.9624023E0,3.0540867E1,0E0,2.0686073E0,2.6774902E0,0E0,5.0854645E0,0E0,0E0,2.3670654E0,7.1081047E0,2.2407185E1,0E0,0E0,0E0,0E0,0E0,0E0,0E0,0E0,0E0,0E0,0E0,0E0],"parents":[2147483647,0,0,1,1,2,2,3,3,4,4,5,5,6,6,7,7,10,10,13,13,14,14,16,16,19,19,20,20,21,21,22,22,24,24,25,25,27,27,30,30,31,31,32,32],"right_children":[2,4,6,8,10,12,14,16,-1,-1,18,-1,-1,20,22,-1,24,-1,-1,26,28,30,32,-1,34,36,-1,38,-1,-1,40,42,44,-1,-1,-1,-1,-1,-1,-1,-1,-1,-1,-1,-1],"split_conditions":[-3.637189E0,5.3320074E-1,-1.6117035E0,-1.7759048E0,-2.3815293E0,-2.1604545E0,2.442026E0,3.0755025E-1,1.20542385E-2,3.684947E-2,3.7355852E0,4.045207E-2,-1.091548E-1,3.031279E0,1.5335054E0,1.01529695E-1,-2.739773E-1,-1.1375717E-1,-4.34899E-2,-8.076299E-1,-7.836055E-1,-2.2000358E0,8.3757865E-1,-3.2873888E-2,3.1065035E0,7.4113834E-1,-1.0943466E-1,8.7268543E-1,-1.2741241E-2,-4.1087225E-2,4.958204E-1,3.9260006E-1,3.5208195E-2,3.2785475E-2,8.879666E-2,-1.0776528E-1,-9.79376E-2,-1.0920473E-1,-4.3295648E-2,-1.0526129E-1,-6.744356E-2,-1.1032505E-1,-1.3423771E-2,-4.3361966E-2,1.4550388E-1],"split_indices":[14,7,17,10,12,16,4,28,0,0,4,0,0,7,17,0,26,0,0,14,1,14,1,0,2,4,0,19,0,0,28,22,28,0,0,0,0,0,0,0,0,0,0,0,0],"split_type":[0,0,0,0,0,0,0,0,0,0,0,0,0,0,0,0,0,0,0,0,0,0,0,0,0,0,0,0,0,0,0,0,0,0,0,0,0,0,0,0,0,0,0,0,0],"sum_hessian":[1.882992E4,1.9369629E2,1.8636225E4,1.3158502E2,6.2111267E1,5.757824E1,1.8578646E4,1.1475508E2,1.6829945E1,1.0728467E1,5.13828E1,1.8337742E1,3.9240498E1,1.7537578E4,1.0410677E3,6.409377E1,5.0661304E1,4.0149918E1,1.1232882E1,1.7421371E4,1.1620655E2,9.7322235E2,6.784541E1,1.2033565E1,3.8627743E1,2.3600066E3,1.5061364E4,1.06071655E2,1.01348915E1,1.945776E1,9.537646E2,4.4421425E1,2.3423986E1,1.0676883E1,2.795086E1,1.86313E3,4.9687662E2,9.055807E1,1.5513592E1,9.299584E2,2.3806217E1,3.440858E1,1.0012847E1,1.2148472E1,1.1275516E1],"tree_param":{"num_deleted":"0","num_feature":"30","num_nodes":"45","size_leaf_vector":"1"}},{"base_weights":[-1.0561692E0,2.2470263E-1,-1.0699438E0,6.7517024E-1,-7.26951E-1,-9.167994E-1,-1.074725E0,7.475171E-1,-9.158794E-3,3.0535316E-2,-1.0215245E0,4.4072266E-3,-9.507608E-1,-7.8120923E-1,-1.0757668E0,9.961826E-1,4.2604288E-1,-7.0723206E-2,-1.1003103E-1,-5.637391E-1,-9.824092E-1,1.572321E-2,-9.791367E-1,-1.077473E0,-9.5692426E-1,1.0857856E0,6.397349E-2,1.5697622E-1,9.492323E-2,-1.074512E-1,4.290703E-3,-6.6351426E-1,-1.0062753E0,-5.5540662E-2,-1.0690023E-1,-1.021294E0,-1.0795566E0,-3.7672254E-1,-1.0418031E0,9.74186E-2,1.3290729E-1,6.1688315E-2,-6.4020686E-2,-1.0993593E-1,3.3601567E-2,-4.680079E-2,-1.0245892E-1,-7.207905E-2,-1.0591741E-1,-1.0807057E-1,-9.634595E-2,4.431203E-2,-1.0354196E-1,-1.0879896E-1,-3.9602406E-2],"categories":[],"categories_nodes":[],"categories_segments":[],"categories_sizes":[],"default_left":[0,0,0,0,0,0,0,0,0,0,0,0,0,0,0,0,0,0,0,0,0,0,0,0,0,0,0,0,0,0,0,0,0,0,0,0,0,0,0,0,0,0,0,0,0,0,0,0,0,0,0,0,0,0,0],"id":20,"left_children":[1,3,5,7,9,11,13,15,-1,-1,17,-1,19,21,23,25,27,-1,-1,29,31,-1,33,35,37,39,-1,41,-1,-1,-1,43,45,-1,-1,47,49,51,53,-1,-1,-1,-1,-1,-1,-1,-1,-1,-1,-1,-1,-1,-1,-1,-1],"loss_changes":[3.0409766E2,7.939728E1,1.1494141E1,7.0273514E0,1.844083E1,1.7098145E1,4.2089844E0,8.747902E0,0E0,0E0,3.7602234E-1,0E0,5.6302185E0,1.1683094E1,2.3046875E0,1.3478508E0,7.1417913E0,0E0,0E0,1.2598981E1,2.874115E0,0E0,1.36343E0,7.949219E-1,1.1518448E1,5.378723E-2,0E0,1.33736315E1,0E0,0E0,0E0,1.5764409E1,3.7694702E0,0E0,0E0,6.048218E0,1.0429688E0,1.7973663E1,5.8453827E0,0E0,0E0,0E0,0E0,0E0,0E0,0E0,0E0,0E0,0E0,0E0,0E0,0E0,0E0,0E0,0E0],"parents":[2147483647,0,0,1,1,2,2,3,3,4,4,5,5,6,6,7,7,10,10,12,12,13,13,14,14,15,15,16,16,19,19,20,20,22,22,23,23,24,24,25,25,27,27,31,31,32,32,35,35,36,36,37,37,38,38],"right_children":[2,4,6,8,10,12,14,16,-1,-1,18,-1,20,22,24,26,28,-1,-1,30,32,-1,34,36,38,40,-1,42,-1,-1,-1,44,46,-1,-1,48,50,52,54,-1,-1,-1,-1,-1,-1,-1,-1,-1,-1,-1,-1,-1,-1,-1,-1],"split_conditions":[-3.637189E0,5.3320074E-1,-1.7919981E0,1.6244669E0,-2.0665903E0,-2.2292297E0,-5.002169E0,3.0755025E-1,-9.158794E-3,3.0535316E-2,-3.764603E0,4.4072266E-3,-1.5235986E0,-6.7172176E-1,1.6216317E0,7.156279E-1,1.6942568E0,-7.0723206E-2,-1.1003103E-1,1.5648613E0,-1.0687954E0,1.572321E-2,-1.3158191E0,-1.4749148E0,-7.927683E-1,-1.8216355E0,6.397349E-2,1.0574026E0,9.492323E-2,-1.074512E-1,4.290703E-3,2.6507315E-1,-1.7918426E0,-5.5540662E-2,-1.0690023E-1,-1.4271978E0,2.5015008E0,-3.2680857E-1,1.130627E0,9.74186E-2,1.3290729E-1,6.1688315E-2,-6.4020686E-2,-1.0993593E-1,3.3601567E-2,-4.680079E-2,-1.0245892E-1,-7.207905E-2,-1.0591741E-1,-1.0807057E-1,-9.634595E-2,4.431203E-2,-1.0354196E-1,-1.0879896E-1,-3.9602406E-2],"split_indices":[14,7,14,18,9,10,7,28,0,0,3,0,19,16,17,15,21,0,0,16,7,0,13,19,22,3,0,27,0,0,0,21,15,0,0,15,7,14,7,0,0,0,0,0,0,0,0,0,0,0,0,0,0,0,0],"split_type":[0,0,0,0,0,0,0,0,0,0,0,0,0,0,0,0,0,0,0,0,0,0,0,0,0,0,0,0,0,0,0,0,0,0,0,0,0,0,0,0,0,0,0,0,0,0,0,0,0,0,0,0,0,0,0],"sum_hessian":[1.7221209E4,1.8306451E2,1.7038145E4,1.2444751E2,5.861701E1,5.216776E2,1.6516467E4,1.1374069E2,1.0706816E1,1.3005149E1,4.5611862E1,1.7798738E1,5.038789E2,6.1070316E1,1.6455396E4,6.2949467E1,5.0791225E1,1.1141756E1,3.4470104E1,3.9511654E1,4.6436725E2,1.0672755E1,5.039756E1,1.6214536E4,2.4086107E2,4.8669033E1,1.4280433E1,3.4399986E1,1.639124E1,2.1032152E1,1.84795E1,3.4338818E1,4.3002844E2,1.0074619E1,4.032294E1,5.9739703E2,1.561714E4,3.143322E1,2.0942784E2,3.679491E1,1.1874125E1,2.195816E1,1.2441823E1,2.3842445E1,1.0496373E1,1.5023558E1,4.1500488E2,6.9117035E1,5.2827997E2,1.5455859E4,1.6127936E2,1.4149464E1,1.7283756E1,1.9481015E2,1.46177E1],"tree_param":{"num_deleted":"0","num_feature":"30","num_nodes":"55","size_leaf_vector":"1"}},{"base_weights":[-1.0450692E0,2.1523397E-1,-1.0591427E0,6.45289E-1,-6.9624764E-1,-8.9422625E-1,-1.0643733E0,8.307579E-1,2.8194204E-1,2.7774645E-2,-9.929733E-1,2.735433E-2,-9.210136E-1,-7.547643E-1,-1.0655031E0,9.544649E-1,1.936712E-2,-5.173865E-2,6.871621E-1,-6.566845E-2,-1.0851171E-1,-7.803943E-1,-1.0442646E0,1.41656315E-2,-9.608766E-1,-9.895427E-1,-1.0684962E0,1.0646188E-1,6.667914E-2,2.6138902E-2,9.2014976E-2,-5.351186E-1,-1.0204599E0,-6.656868E-2,-1.0642455E0,-1.057384E-1,-5.4595955E-2,-6.4393395E-1,-1.033598E0,-9.709876E-1,-1.070174E0,-1.2819844E-2,-1.0692593E-1,-4.9478065E-2,-1.08037226E-1,-1.0829567E-1,-5.99039E-2,2.7515555E-3,-9.577185E-2,-6.986204E-2,-1.0578568E-1,3.1330433E-2,-1.0270174E-1,-1.0711148E-1,-9.532044E-2],"categories":[],"categories_nodes":[],"categories_segments":[],"categories_sizes":[],"default_left":[0,0,0,0,0,0,0,0,0,0,0,0,0,0,0,0,0,0,0,0,0,0,0,0,0,0,0,0,0,0,0,0,0,0,0,0,0,0,0,0,0,0,0,0,0,0,0,0,0,0,0,0,0,0,0],"id":21,"left_children":[1,3,5,7,9,11,13,15,17,-1,19,-1,21,23,25,27,-1,-1,29,-1,-1,31,33,-1,35,37,39,-1,-1,-1,-1,41,43,-1,45,-1,-1,47,49,51,53,-1,-1,-1,-1,-1,-1,-1,-1,-1,-1,-1,-1,-1,-1],"loss_changes":[2.7943945E2,6.8920334E1,1.24765625E1,7.7985992E0,1.6598148E1,1.5418732E1,4.4726562E0,5.9942703E0,1.3893599E1,0E0,6.355858E-1,0E0,7.403778E0,1.0903908E1,2.359375E0,1.362545E0,0E0,0E0,2.553483E0,0E0,0E0,1.2729202E1,1.1807556E0,0E0,1.3252258E0,8.214111E0,1.3242188E0,0E0,0E0,0E0,0E0,2.4558441E1,3.0191422E0,0E0,1.4017334E0,0E0,0E0,1.4477467E1,3.4509888E0,1.8680328E1,5.410156E-1,0E0,0E0,0E0,0E0,0E0,0E0,0E0,0E0,0E0,0E0,0E0,0E0,0E0,0E0],"parents":[2147483647,0,0,1,1,2,2,3,3,4,4,5,5,6,6,7,7,8,8,10,10,12,12,13,13,14,14,15,15,18,18,21,21,22,22,24,24,25,25,26,26,31,31,32,32,34,34,37,37,38,38,39,39,40,40],"right_children":[2,4,6,8,10,12,14,16,18,-1,20,-1,22,24,26,28,-1,-1,30,-1,-1,32,34,-1,36,38,40,-1,-1,-1,-1,42,44,-1,46,-1,-1,48,50,52,54,-1,-1,-1,-1,-1,-1,-1,-1,-1,-1,-1,-1,-1,-1],"split_conditions":[-3.637189E0,5.3320074E-1,-1.7919981E0,7.265996E-1,-2.0665903E0,-2.8812456E0,-5.002169E0,5.314718E-1,-2.739773E-1,2.7774645E-2,-3.764603E0,2.735433E-2,-2.8745413E-3,-6.7172176E-1,-1.4749148E0,2.998543E-1,1.936712E-2,-5.173865E-2,-6.368271E-2,-6.566845E-2,-1.0851171E-1,-8.9035696E-1,-1.1425321E0,1.41656315E-2,1.42959E5,-1.4271978E0,-9.770104E-1,1.0646188E-1,6.667914E-2,2.6138902E-2,9.2014976E-2,2.8251266E-1,-1.0019213E0,-6.656868E-2,3.42E2,-1.057384E-1,-5.4595955E-2,-1.3531591E-1,2.5568E4,-1.5607545E0,2.5015008E0,-1.2819844E-2,-1.0692593E-1,-4.9478065E-2,-1.08037226E-1,-1.0829567E-1,-5.99039E-2,2.7515555E-3,-9.577185E-2,-6.986204E-2,-1.0578568E-1,3.1330433E-2,-1.0270174E-1,-1.0711148E-1,-9.532044E-2],"split_indices":[14,7,14,20,9,16,7,16,26,0,3,0,15,16,19,22,0,0,26,0,0,3,9,0,0,15,20,0,0,0,0,26,13,0,29,0,0,8,0,13,7,0,0,0,0,0,0,0,0,0,0,0,0,0,0],"split_type":[0,0,0,0,0,0,0,0,0,0,0,0,0,0,0,0,0,0,0,0,0,0,0,0,0,0,0,0,0,0,0,0,0,0,0,0,0,0,0,0,0,0,0,0,0,0,0,0,0,0,0,0,0,0,0],"sum_hessian":[1.5740976E4,1.7367676E2,1.5567299E4,1.181998E2,5.5476955E1,4.8385025E2,1.5083448E4,7.740324E1,4.0796562E1,1.2969356E1,4.25076E1,1.0643543E1,4.7320673E2,5.727885E1,1.502617E4,6.440011E1,1.3003131E1,1.363118E1,2.7165382E1,1.0890019E1,3.1617579E1,2.2445439E2,2.4875233E2,1.0766416E1,4.6512432E1,5.8220447E2,1.4443966E4,4.4615475E1,1.9784632E1,1.03582E1,1.6807182E1,1.1261961E2,1.1183477E2,1.419106E1,2.3456128E2,3.6479156E1,1.00332775E1,6.7589325E1,5.146152E2,2.5412642E2,1.4189839E4,6.462607E1,4.7993546E1,1.2389132E1,9.944564E1,2.2421515E2,1.0346128E1,2.1816904E1,4.5772423E1,3.676371E1,4.7785144E2,1.04313545E1,2.4369507E2,1.4068531E4,1.2130756E2],"tree_param":{"num_deleted":"0","num_feature":"30","num_nodes":"55","size_leaf_vector":"1"}},{"base_weights":[-1.034748E0,1.5561521E-1,-1.0461174E0,-1.0108697E-1,5.7895654E-1,-1.0572938E0,-9.078664E-1,2.2969942E-1,7.9456526E-1,-1.058636E0,-8.618215E-1,6.768448E-2,-9.2494255E-1,8.755142E-2,-3.5621384E-1,9.369433E-1,7.0646293E-3,-1.0610044E-1,-9.579649E-1,-4.7203386E-1,-1.0623509E-1,-6.747694E-1,-9.860792E-1,-9.893583E-2,3.232423E-2,6.869097E-2,1.04541115E-1,5.586755E-3,-1.0245732E0,-1.038595E-1,7.513175E-2,-8.4171766E-1,-2.742397E-2,-9.966647E-1,-1.5233737E-2,-1.06877126E-1,-5.7198215E-2,-4.941338E-2,-9.76932E-2,-8.596622E-2,3.532994E-2,-1.0207182E-1,-5.9450965E-2],"categories":[],"categories_nodes":[],"categories_segments":[],"categories_sizes":[],"default_left":[0,0,0,0,0,0,0,0,0,0,0,0,0,0,0,0,0,0,0,0,0,0,0,0,0,0,0,0,0,0,0,0,0,0,0,0,0,0,0,0,0,0,0],"id":22,"left_children":[1,3,5,-1,7,9,11,13,15,17,19,-1,21,-1,23,25,-1,-1,27,29,-1,31,33,-1,-1,-1,-1,-1,35,-1,-1,37,39,41,-1,-1,-1,-1,-1,-1,-1,-1,-1],"loss_changes":[1.9478613E2,6.820109E1,2.1050781E1,0E0,7.4305573E0,2.5449219E0,2.9648743E1,1.5446068E1,6.3347855E0,2.1015625E0,6.941101E0,0E0,1.5569946E1,0E0,9.647016E0,6.8714523E-1,0E0,0E0,2.1053986E1,2.4446186E1,0E0,2.2848343E1,7.357544E0,0E0,0E0,0E0,0E0,0E0,5.2259216E0,0E0,0E0,7.4227066E0,1.4379042E1,7.518799E0,0E0,0E0,0E0,0E0,0E0,0E0,0E0,0E0,0E0],"parents":[2147483647,0,0,1,1,2,2,4,4,5,5,6,6,7,7,8,8,9,9,10,10,12,12,14,14,15,15,18,18,19,19,21,21,22,22,28,28,31,31,32,32,33,33],"right_children":[2,4,6,-1,8,10,12,14,16,18,20,-1,22,-1,24,26,-1,-1,28,30,-1,32,34,-1,-1,-1,-1,-1,36,-1,-1,38,40,42,-1,-1,-1,-1,-1,-1,-1,-1,-1],"split_conditions":[-3.5291784E0,1.1098758E0,1.8897588E0,-1.0108697E-1,-1.8080507E-1,3.031279E0,-2.3119144E0,-3.4372675E-1,-8.4980994E-2,8.281944E-1,7.4366397E-1,6.768448E-2,3.84E0,8.755142E-2,3.792137E-2,2.795736E0,7.0646293E-3,-1.0610044E-1,-1.5303957E0,-3.9651953E-3,-1.0623509E-1,1.0645357E0,1.2032214E0,-9.893583E-2,3.232423E-2,6.869097E-2,1.04541115E-1,5.586755E-3,1.7165427E0,-1.038595E-1,7.513175E-2,-1.2376323E0,-7.0109675E-3,4.777701E0,-1.5233737E-2,-1.06877126E-1,-5.7198215E-2,-4.941338E-2,-9.76932E-2,-8.596622E-2,3.532994E-2,-1.0207182E-1,-5.9450965E-2],"split_indices":[12,11,4,0,26,7,16,26,6,21,6,0,29,0,24,2,0,0,13,27,0,11,26,0,0,0,0,0,9,0,0,15,27,4,0,0,0,0,0,0,0,0,0],"split_type":[0,0,0,0,0,0,0,0,0,0,0,0,0,0,0,0,0,0,0,0,0,0,0,0,0,0,0,0,0,0,0,0,0,0,0,0,0,0,0,0,0,0,0],"sum_hessian":[1.4379632E4,1.359237E2,1.4243708E4,3.5824413E1,1.0009929E2,1.3172204E4,1.0715037E3,3.899614E1,6.1103146E1,1.3077986E4,9.421745E1,1.1011058E1,1.0604927E3,1.831472E1,2.068142E1,5.0814796E1,1.0288353E1,1.2768061E4,3.099256E2,3.3144794E1,6.107266E1,2.1062901E2,8.4986365E2,1.0469458E1,1.0211963E1,1.7593094E1,3.3221703E1,1.9116627E1,2.9080896E2,2.2756693E1,1.03881035E1,1.672067E2,4.3422314E1,8.3901575E2,1.0847878E1,2.6369614E2,2.7112837E1,4.8132088E1,1.190746E2,1.32345085E1,3.0187805E1,7.902137E2,4.8802074E1],"tree_param":{"num_deleted":"0","num_feature":"30","num_nodes":"43","size_leaf_vector":"1"}},{"base_weights":[-1.0247946E0,2.1692865E-1,-1.0398636E0,6.152262E-1,-6.361477E-1,-8.4653E-1,-1.0461551E0,1.8467593E-1,7.421701E-1,4.0762648E-2,-1.0891416E-1,4.2112857E-2,-8.94409E-1,-6.9748133E-1,-1.0474875E0,5.426064E-2,-1.6335415E-2,9.4239664E-1,2.4957581E-1,-2.1636225E-2,2.948833E-2,7.946788E-2,-6.681313E-2,-7.517663E-1,-1.0222378E0,-5.4432177E-3,-1.0427673E-1,-9.5960325E-1,-1.0498996E0,7.731794E-1,1.0837495E-1,-2.6826952E-2,9.4462365E-2,-4.8726085E-1,-1.0152689E0,-6.0091402E-2,-1.040991E0,-2.2324586E-1,-1.0162406E0,-1.0513262E0,-9.1771436E-1,9.778322E-2,4.5613192E-2,-9.479671E-2,-1.1975118E-2,-5.93549E-2,-1.061134E-1,-8.070342E-2,-1.0644597E-1,3.594382E-2,-1.0014428E-1,-1.04470484E-1,-7.254916E-2,-1.0161745E-1,-1.0556821E-1,-1.0817094E-2,-9.835219E-2],"categories":[],"categories_nodes":[],"categories_segments":[],"categories_sizes":[],"default_left":[0,0,0,0,0,0,0,0,0,0,0,0,0,0,0,0,0,0,0,0,0,0,0,0,0,0,0,0,0,0,0,0,0,0,0,0,0,0,0,0,0,0,0,0,0,0,0,0,0,0,0,0,0,0,0,0,0],"id":23,"left_children":[1,3,5,7,9,11,13,15,17,19,-1,21,23,25,27,-1,-1,29,31,-1,-1,-1,-1,33,35,-1,-1,37,39,41,-1,-1,-1,43,45,-1,47,49,51,53,55,-1,-1,-1,-1,-1,-1,-1,-1,-1,-1,-1,-1,-1,-1,-1,-1],"loss_changes":[2.4597363E2,5.417795E1,1.48984375E1,5.788868E0,1.5644934E1,1.7661285E1,5.1054688E0,3.3299131E0,7.990883E0,1.459542E0,0E0,1.2360275E1,6.398926E0,1.1226578E1,1.6455078E0,0E0,0E0,5.7185364E-1,9.418561E0,0E0,0E0,0E0,0E0,1.2716927E1,9.9046326E-1,0E0,0E0,1.419812E1,1.3291016E0,1.5209713E0,0E0,0E0,0E0,1.6228775E1,1.189003E0,0E0,2.0857239E-1,1.2142654E1,1.8977661E0,7.6953125E-1,7.2345276E0,0E0,0E0,0E0,0E0,0E0,0E0,0E0,0E0,0E0,0E0,0E0,0E0,0E0,0E0,0E0,0E0],"parents":[2147483647,0,0,1,1,2,2,3,3,4,4,5,5,6,6,7,7,8,8,9,9,11,11,12,12,13,13,14,14,17,17,18,18,23,23,24,24,27,27,28,28,29,29,33,33,34,34,36,36,37,37,38,38,39,39,40,40],"right_children":[2,4,6,8,10,12,14,16,18,20,-1,22,24,26,28,-1,-1,30,32,-1,-1,-1,-1,34,36,-1,-1,38,40,42,-1,-1,-1,44,46,-1,48,50,52,54,56,-1,-1,-1,-1,-1,-1,-1,-1,-1,-1,-1,-1,-1,-1,-1,-1],"split_conditions":[-3.637189E0,5.3320074E-1,-1.7919981E0,3.5699E4,-1.4326483E0,-2.205476E0,-5.002169E0,2.1212E4,-1.5825396E0,-3.218347E-1,-1.0891416E-1,-1.5207032E0,-2.8745413E-3,9.850053E-1,-2.475204E0,5.426064E-2,-1.6335415E-2,-1.897966E0,-1.9263623E0,-2.1636225E-2,2.948833E-2,7.946788E-2,-6.681313E-2,-8.9035696E-1,3.145E4,-5.4432177E-3,-1.0427673E-1,-3.2680857E-1,2.5015008E0,2.628937E-1,1.0837495E-1,-2.6826952E-2,9.4462365E-2,-2.6763827E-2,-9.843226E-1,-6.0091402E-2,-8.290943E-1,7.8837377E-1,1.0642091E0,-8.076299E-1,-1.3385748E0,9.778322E-2,4.5613192E-2,-9.479671E-2,-1.1975118E-2,-5.93549E-2,-1.061134E-1,-8.070342E-2,-1.0644597E-1,3.594382E-2,-1.0014428E-1,-1.04470484E-1,-7.254916E-2,-1.0161745E-1,-1.0556821E-1,-1.0817094E-2,-9.835219E-2],"split_indices":[14,7,14,0,12,12,7,0,7,21,0,7,15,12,12,0,0,5,3,0,0,0,0,3,0,0,0,14,7,28,0,0,0,27,13,0,2,5,10,14,13,0,0,0,0,0,0,0,0,0,0,0,0,0,0,0,0],"split_type":[0,0,0,0,0,0,0,0,0,0,0,0,0,0,0,0,0,0,0,0,0,0,0,0,0,0,0,0,0,0,0,0,0,0,0,0,0,0,0,0,0,0,0,0,0,0,0,0,0,0,0,0,0,0,0,0,0],"sum_hessian":[1.3132527E4,1.5729907E2,1.2975229E4,1.0742271E2,4.987637E1,4.1321292E2,1.2562016E4,2.5019598E1,8.240311E1,2.036095E1,2.951542E1,2.1131344E1,3.9208157E2,4.981765E1,1.2512198E4,1.2058743E1,1.2960856E1,5.7939224E1,2.4463886E1,1.0194508E1,1.0166443E1,1.0202267E1,1.0929077E1,1.8855563E2,2.0352594E2,1.7808788E1,3.200886E1,3.4487952E2,1.2167318E4,2.9315155E1,2.8624071E1,1.4370886E1,1.0092999E1,9.552063E1,9.303501E1,1.0081016E1,1.9344492E2,2.498496E1,3.1989456E2,1.2030523E4,1.3679527E2,1.6548796E1,1.2766358E1,4.168514E1,5.3835487E1,1.0493223E1,8.2541794E1,2.0861984E1,1.7258293E2,1.4594941E1,1.0390019E1,2.890077E2,3.0886862E1,1.3522446E3,1.0678278E4,1.0482804E1,1.2631246E2],"tree_param":{"num_deleted":"0","num_feature":"30","num_nodes":"57","size_leaf_vector":"1"}},{"base_weights":[-1.0156676E0,1.9517875E-1,-1.0288526E0,5.9828174E-1,-7.506411E-1,-1.0404406E0,-8.473906E-1,2.6449415E-1,8.420636E-1,-1.0560822E-1,-1.8256761E-2,-8.262306E-1,-1.0427289E0,-9.289417E-1,-1.4526755E-1,8.5961044E-2,-2.678026E-1,3.6440328E-2,9.484735E-2,-1.0059518E0,3.1086152E-2,-1.0512986E0,-1.0055845E0,3.5639312E-2,-9.504489E-1,3.2334065E-1,-9.169738E-1,-1.3505664E-1,9.103809E-2,-5.280584E-2,-1.0515298E-1,-1.0528628E0,-8.8306075E-1,-9.614082E-1,-1.0578934E-1,-9.777242E-1,-4.5379585E-1,1.0686108E0,-3.3270478E-1,-1.12147205E-1,-4.9032E-2,-7.291802E-2,-1.0534143E-1,-9.035214E-3,-1.0495943E-1,-9.722397E-2,-4.061004E-2,-1.0582278E-1,-8.9228526E-2,3.0941337E-2,-9.740683E-2,1.2584257E-2,1.9034238E-1,-9.009059E-2,5.163288E-2],"categories":[],"categories_nodes":[],"categories_segments":[],"categories_sizes":[],"default_left":[0,0,0,0,0,0,0,0,0,0,0,0,0,0,0,0,0,0,0,0,0,0,0,0,0,0,0,0,0,0,0,0,0,0,0,0,0,0,0,0,0,0,0,0,0,0,0,0,0,0,0,0,0,0,0],"id":24,"left_children":[1,3,5,7,9,11,13,15,17,-1,-1,19,21,23,25,-1,27,-1,-1,29,-1,31,33,-1,35,37,39,-1,-1,-1,-1,41,43,45,-1,47,49,51,53,-1,-1,-1,-1,-1,-1,-1,-1,-1,-1,-1,-1,-1,-1,-1,-1],"loss_changes":[1.9157129E2,4.999811E1,2.4052734E1,7.2374306E0,6.622778E0,4.600586E0,4.0929077E1,1.2950309E1,2.3241425E0,0E0,0E0,2.5363243E1,2.4521484E0,1.8095703E1,2.771337E1,0E0,2.924181E1,0E0,0E0,1.755455E0,0E0,1.4199219E0,3.8095703E0,0E0,8.118225E0,2.3780434E1,1.9720573E0,0E0,0E0,0E0,0E0,8.105469E-1,1.15858E1,6.482666E0,0E0,3.1708984E0,1.4107805E1,1.7600481E1,1.3125395E1,0E0,0E0,0E0,0E0,0E0,0E0,0E0,0E0,0E0,0E0,0E0,0E0,0E0,0E0,0E0,0E0],"parents":[2147483647,0,0,1,1,2,2,3,3,4,4,5,5,6,6,7,7,8,8,11,11,12,12,13,13,14,14,16,16,19,19,21,21,22,22,24,24,25,25,26,26,31,31,32,32,33,33,35,35,36,36,37,37,38,38],"right_children":[2,4,6,8,10,12,14,16,18,-1,-1,20,22,24,26,-1,28,-1,-1,30,-1,32,34,-1,36,38,40,-1,-1,-1,-1,42,44,46,-1,48,50,52,54,-1,-1,-1,-1,-1,-1,-1,-1,-1,-1,-1,-1,-1,-1,-1,-1],"split_conditions":[-1.6117035E0,-1.2405673E0,2.442026E0,-1.986179E-1,2.1752284E0,-1.3892003E0,1.5335054E0,-3.3905336E-1,1.7970024E0,-1.0560822E-1,-1.8256761E-2,-2.4484587E0,5.545181E-1,-2.7033043E0,1.2589781E-1,8.5961044E-2,9.101E1,3.6440328E-2,9.484735E-2,-1.2146025E0,3.1086152E-2,2.5015008E0,1.6543217E-1,3.5639312E-2,4.777701E0,1.365556E0,-5.2780207E-2,-1.3505664E-1,9.103809E-2,-5.280584E-2,-1.0515298E-1,-2.4574487E0,-5.372292E-1,1.8897588E0,-1.0578934E-1,-1.2657E-1,-4.9320182E-1,1.0999854E0,2.3334193E-1,-1.12147205E-1,-4.9032E-2,-7.291802E-2,-1.0534143E-1,-9.035214E-3,-1.0495943E-1,-9.722397E-2,-4.061004E-2,-1.0582278E-1,-8.9228526E-2,3.0941337E-2,-9.740683E-2,1.2584257E-2,1.9034238E-1,-9.009059E-2,5.163288E-2],"split_indices":[17,10,4,26,4,20,17,26,4,0,0,1,17,10,8,0,29,0,0,19,0,7,8,0,4,2,21,0,0,0,0,19,26,4,0,1,25,18,26,0,0,0,0,0,0,0,0,0,0,0,0,0,0,0,0],"split_type":[0,0,0,0,0,0,0,0,0,0,0,0,0,0,0,0,0,0,0,0,0,0,0,0,0,0,0,0,0,0,0,0,0,0,0,0,0,0,0,0,0,0,0,0,0,0,0,0,0,0,0,0,0,0,0],"sum_hessian":[1.1985779E4,1.2896027E2,1.1856819E4,9.068029E1,3.8279972E1,1.1140656E4,7.1616266E2,3.9154568E1,5.152572E1,2.4335976E1,1.3943999E1,1.21580696E2,1.1019075E4,6.413475E2,7.4815155E1,1.8196114E1,2.0958456E1,1.0193398E1,4.133232E1,1.0508672E2,1.6493975E1,8.931219E3,2.0878567E3,1.02986145E1,6.310489E2,4.6910435E1,2.790472E1,1.08452425E1,1.0113213E1,1.0245596E1,9.4841125E1,8.843737E3,8.748133E1,1.1424263E3,9.454305E2,5.9727875E2,3.3770145E1,2.1667362E1,2.5243074E1,1.7762499E1,1.01422205E1,1.7292398E1,8.826445E3,1.5455389E1,7.202595E1,1.1198328E3,2.2593567E1,3.0165924E2,2.9561948E2,1.3853361E1,1.9916784E1,1.0716163E1,1.0951199E1,1.508596E1,1.0157114E1],"tree_param":{"num_deleted":"0","num_feature":"30","num_nodes":"55","size_leaf_vector":"1"}},{"base_weights":[-1.0069064E0,2.149448E-1,-1.0230755E0,5.568467E-1,-6.4433473E-1,-8.0339557E-1,-1.0304562E0,6.583232E-1,-3.5432275E-2,-6.323716E-3,-1.0610384E-1,5.1262146E-3,-8.5353667E-1,-6.4266884E-1,-1.032025E0,1.5082563E-1,8.1562495E-1,-8.9924806E-1,-1.5740189E-1,-2.7320927E-4,-1.0245867E-1,-1.0347214E0,-8.5206246E-1,5.2050978E-2,-2.2077115E-2,1.1168208E-1,6.5672827E-1,-9.7892874E-1,-5.614401E-1,7.811395E-2,-1.02334E-1,-1.0363982E0,-8.857678E-1,-4.4112498E-1,-1.0464146E-1,8.3561845E-2,1.3414459E-2,-1.0141245E-1,-5.6789763E-2,-7.966616E-2,5.377084E-2,-9.9781E-2,-1.04093984E-1,-8.012624E-3,-9.5954366E-2,-1.5579746E-3,-1.0115396E-1],"categories":[],"categories_nodes":[],"categories_segments":[],"categories_sizes":[],"default_left":[0,0,0,0,0,0,0,0,0,0,0,0,0,0,0,0,0,0,0,0,0,0,0,0,0,0,0,0,0,0,0,0,0,0,0,0,0,0,0,0,0,0,0,0,0,0,0],"id":25,"left_children":[1,3,5,7,9,11,13,15,-1,-1,-1,-1,17,19,21,23,25,27,29,-1,-1,31,33,-1,-1,-1,35,37,39,-1,-1,41,43,45,-1,-1,-1,-1,-1,-1,-1,-1,-1,-1,-1,-1,-1],"loss_changes":[2.1630273E2,4.256892E1,1.6674805E1,9.786087E0,9.947771E0,1.5275055E1,5.6884766E0,7.326153E0,0E0,0E0,0E0,0E0,1.0543625E1,1.0926294E1,4.1640625E0,3.316549E0,2.6648521E0,7.926056E0,1.860023E1,0E0,0E0,1.6396484E0,1.2248093E1,0E0,0E0,0E0,4.4603767E0,3.0905151E0,1.6572535E1,0E0,0E0,7.34375E-1,7.1062164E0,1.2807041E1,0E0,0E0,0E0,0E0,0E0,0E0,0E0,0E0,0E0,0E0,0E0,0E0,0E0],"parents":[2147483647,0,0,1,1,2,2,3,3,4,4,5,5,6,6,7,7,12,12,13,13,14,14,15,15,16,16,17,17,18,18,21,21,22,22,26,26,27,27,28,28,31,31,32,32,33,33],"right_children":[2,4,6,8,10,12,14,16,-1,-1,-1,-1,18,20,22,24,26,28,30,-1,-1,32,34,-1,-1,-1,36,38,40,-1,-1,42,44,46,-1,-1,-1,-1,-1,-1,-1,-1,-1,-1,-1,-1,-1],"split_conditions":[-3.637189E0,7.67661E-1,-1.7919981E0,-3.6841083E-1,-1.4326483E0,-2.205476E0,-5.002169E0,3.5699E4,-3.5432275E-2,-6.323716E-3,-1.0610384E-1,5.1262146E-3,2.67E2,9.850053E-1,1.6216317E0,-3.4014887E-1,-9.341322E-1,1.4717505E0,2.5953493E-1,-2.7320927E-4,-1.0245867E-1,2.5015008E0,-9.644959E-3,5.2050978E-2,-2.2077115E-2,1.1168208E-1,-1.5825396E0,1.0604E2,1.3312825E0,7.811395E-2,-1.02334E-1,-8.076299E-1,-1.2917428E0,-3.2680857E-1,-1.0464146E-1,8.3561845E-2,1.3414459E-2,-1.0141245E-1,-5.6789763E-2,-7.966616E-2,5.377084E-2,-9.9781E-2,-1.04093984E-1,-8.012624E-3,-9.5954366E-2,-1.5579746E-3,-1.0115396E-1],"split_indices":[14,7,14,10,12,12,7,0,0,0,0,0,29,12,17,23,13,16,11,0,0,7,8,0,0,0,7,29,11,0,0,14,13,14,0,0,0,0,0,0,0,0,0,0,0,0,0],"split_type":[0,0,0,0,0,0,0,0,0,0,0,0,0,0,0,0,0,0,0,0,0,0,0,0,0,0,0,0,0,0,0,0,0,0,0,0,0,0,0,0,0,0,0,0,0,0,0],"sum_hessian":[1.093645E4,1.4267482E2,1.0793775E4,1.0231592E2,4.0358894E1,3.5442737E2,1.0439348E4,9.231261E1,1.0003315E1,1.7335756E1,2.302314E1,1.9640015E1,3.3478735E2,4.3717472E1,1.039563E4,2.2306072E1,7.000653E1,3.1388452E2,2.090285E1,1.6715816E1,2.7001656E1,1.0237493E4,1.5813655E2,1.0980927E1,1.1325145E1,2.2095297E1,4.7911236E1,2.5244176E2,6.1442764E1,1.0077905E1,1.0824944E1,1.0117641E4,1.1985253E2,5.182586E1,1.063107E2,3.524664E1,1.2664596E1,2.3117905E2,2.1262697E1,5.083838E1,1.0604385E1,1.0886547E3,9.028986E3,1.022964E1,1.09622894E2,3.027052E1,2.1555342E1],"tree_param":{"num_deleted":"0","num_feature":"30","num_nodes":"47","size_leaf_vector":"1"}},{"base_weights":[-9.9843806E-1,1.8656547E-1,-1.0123756E0,5.671611E-1,-9.717067E-2,-1.0233006E0,-7.903292E-1,8.6773026E-1,1.6948903E-1,-1.024511E0,-2.9576499E-2,-5.961203E-1,-1.0221783E0,5.7057478E-2,1.04430355E-1,-6.147049E-2,4.7726274E-1,-9.0785474E-1,-1.0289716E0,2.5955734E-1,-7.413937E-1,-4.0936112E-2,-1.05328E-1,1.8302908E-2,9.266955E-2,-9.661714E-1,-5.427466E-1,-1.0308887E0,-8.6072046E-1,8.5313E-2,-3.294938E-2,-8.121705E-1,1.7640429E-2,-5.6525733E-2,-9.94957E-2,8.951879E-3,-1.01857185E-1,-1.0382642E-1,-9.9225305E-2,-1.8394958E-2,-9.882845E-2,-1.0157774E-2,-9.098507E-2],"categories":[],"categories_nodes":[],"categories_segments":[],"categories_sizes":[],"default_left":[0,0,0,0,0,0,0,0,0,0,0,0,0,0,0,0,0,0,0,0,0,0,0,0,0,0,0,0,0,0,0,0,0,0,0,0,0,0,0,0,0,0,0],"id":26,"left_children":[1,3,5,7,-1,9,11,13,15,17,-1,19,21,-1,-1,-1,23,25,27,29,31,-1,-1,-1,-1,33,35,37,39,-1,-1,41,-1,-1,-1,-1,-1,-1,-1,-1,-1,-1,-1],"loss_changes":[1.6498535E2,5.2056694E1,2.3115234E1,1.043976E1,0E0,7.970703E0,2.0412415E1,2.038231E0,9.795489E0,3.9472656E0,0E0,3.207171E1,3.5982513E0,0E0,0E0,0E0,3.643661E0,7.011963E0,2.0234375E0,1.3554123E1,1.4401352E1,0E0,0E0,0E0,0E0,2.9450378E0,1.5443602E1,1.5117188E0,9.121574E0,0E0,0E0,1.4064468E1,0E0,0E0,0E0,0E0,0E0,0E0,0E0,0E0,0E0,0E0,0E0],"parents":[2147483647,0,0,1,1,2,2,3,3,5,5,6,6,7,7,8,8,9,9,11,11,12,12,16,16,17,17,18,18,19,19,20,20,25,25,26,26,27,27,28,28,31,31],"right_children":[2,4,6,8,-1,10,12,14,16,18,-1,20,22,-1,-1,-1,24,26,28,30,32,-1,-1,-1,-1,34,36,38,40,-1,-1,42,-1,-1,-1,-1,-1,-1,-1,-1,-1,-1,-1],"split_conditions":[-1.6117035E0,-2.205476E0,1.4074969E0,2.717375E-1,-9.717067E-2,2.723479E0,1.2589781E-1,7.6558596E-1,-2.739773E-1,-1.4749148E0,-2.9576499E-2,-1.5235986E0,-1.7055917E0,5.7057478E-2,1.04430355E-1,-6.147049E-2,9.101E1,1.1018476E0,2.5015008E0,1.365556E0,2.67E2,-4.0936112E-2,-1.05328E-1,1.8302908E-2,9.266955E-2,-2.037831E0,1.3911618E0,5.3264964E-1,-5.372292E-1,8.5313E-2,-3.294938E-2,-2.5133436E0,1.7640429E-2,-5.6525733E-2,-9.94957E-2,8.951879E-3,-1.01857185E-1,-1.0382642E-1,-9.9225305E-2,-1.8394958E-2,-9.882845E-2,-1.0157774E-2,-9.098507E-2],"split_indices":[17,12,17,28,0,11,8,19,26,19,0,19,13,0,0,0,29,2,7,2,29,0,0,0,0,12,2,17,26,0,0,8,0,0,0,0,0,0,0,0,0,0,0],"split_type":[0,0,0,0,0,0,0,0,0,0,0,0,0,0,0,0,0,0,0,0,0,0,0,0,0,0,0,0,0,0,0,0,0,0,0,0,0,0,0,0,0,0,0],"sum_hessian":[9.976925E3,1.1583687E2,9.861088E3,8.7572E1,2.8264866E1,9.395221E3,4.6586734E2,4.920202E1,3.8369984E1,9.379209E3,1.6011915E1,2.5545555E2,2.1041179E2,1.9916267E1,2.9285751E1,1.0533592E1,2.7836391E1,3.5295392E2,9.026255E3,3.6961464E1,2.184941E2,1.0847067E1,1.9956473E2,1.7673311E1,1.0163081E1,3.029234E2,5.0030518E1,8.919492E3,1.0676316E2,1.8186777E1,1.8774689E1,2.029579E2,1.5536193E1,2.1675303E1,2.8124808E2,2.1832232E1,2.8198286E1,7.468004E3,1.4514879E3,1.7319468E1,8.9443695E1,2.477408E1,1.7818382E2],"tree_param":{"num_deleted":"0","num_feature":"30","num_nodes":"43","size_leaf_vector":"1"}},{"base_weights":[-9.899479E-1,1.787363E-1,-1.0042387E0,5.198558E-1,-1.0136091E-1,-1.0194129E0,-7.7552307E-1,8.0400336E-1,1.5942074E-1,-1.0268254E0,-9.201723E-1,-8.743609E-1,-5.7475243E-2,4.5791466E-2,9.764459E-2,-5.6865763E-2,4.6142006E-1,-1.0291233E0,-8.226665E-1,-2.011629E-1,-9.459015E-1,-9.264421E-1,-1.5911074E-1,-1.0533245E-1,3.6266205E-1,7.972274E-2,2.0330189E-2,-1.0321811E0,-9.2359865E-1,-1.6096996E-2,-9.6866786E-1,6.554608E-2,-9.7972654E-2,-8.13211E-1,-1.0118945E0,-9.8268706E-1,-6.6818804E-1,9.31749E-2,-6.745E-1,-5.7618767E-2,8.40526E-1,-1.0366761E-1,-1.0010296E-1,-4.5686953E-2,-1.0377518E-1,-5.0682884E-2,-1.0326964E-1,-1.2938783E-3,-8.888245E-2,-1.0295023E-1,-4.782771E-2,-3.3458438E-2,-9.9994354E-2,-1.0016971E-1,1.4886707E-2,-2.1580074E-2,-9.8274104E-2,3.9681243E-3,1.4026825E-1],"categories":[],"categories_nodes":[],"categories_segments":[],"categories_sizes":[],"default_left":[0,0,0,0,0,0,0,0,0,0,0,0,0,0,0,0,0,0,0,0,0,0,0,0,0,0,0,0,0,0,0,0,0,0,0,0,0,0,0,0,0,0,0,0,0,0,0,0,0,0,0,0,0,0,0,0,0,0,0],"id":27,"left_children":[1,3,5,7,-1,9,11,13,15,17,19,21,23,-1,-1,-1,25,27,29,31,33,35,37,-1,39,-1,-1,41,43,-1,45,-1,-1,47,49,51,53,-1,55,-1,57,-1,-1,-1,-1,-1,-1,-1,-1,-1,-1,-1,-1,-1,-1,-1,-1,-1,-1],"loss_changes":[1.522207E2,4.5602364E1,3.0422852E1,8.764839E0,0E0,5.256836E0,3.995862E1,2.4358444E0,8.953075E0,2.8291016E0,1.0827881E1,1.8309082E1,2.9368021E1,0E0,0E0,0E0,2.3072853E0,1.5458984E0,8.751472E0,1.5212445E1,4.2099E0,6.0487366E0,2.0213816E1,0E0,2.2677454E1,0E0,0E0,1.5136719E-2,1.1653137E1,0E0,1.7043304E0,0E0,0E0,1.1848404E1,3.0756836E0,3.8811646E0,2.3496964E1,0E0,3.214984E0,0E0,1.4885807E1,0E0,0E0,0E0,0E0,0E0,0E0,0E0,0E0,0E0,0E0,0E0,0E0,0E0,0E0,0E0,0E0,0E0,0E0],"parents":[2147483647,0,0,1,1,2,2,3,3,5,5,6,6,7,7,8,8,9,9,10,10,11,11,12,12,16,16,17,17,18,18,19,19,20,20,21,21,22,22,24,24,27,27,28,28,30,30,33,33,34,34,35,35,36,36,38,38,40,40],"right_children":[2,4,6,8,-1,10,12,14,16,18,20,22,24,-1,-1,-1,26,28,30,32,34,36,38,-1,40,-1,-1,42,44,-1,46,-1,-1,48,50,52,54,-1,56,-1,58,-1,-1,-1,-1,-1,-1,-1,-1,-1,-1,-1,-1,-1,-1,-1,-1,-1,-1],"split_conditions":[-1.6117035E0,-1.8756604E0,2.442026E0,2.717375E-1,-1.0136091E-1,1.12649E0,1.5335054E0,-1.6124429E-1,-2.739773E-1,2.5015008E0,-1.173387E0,4.777701E0,5.092429E-3,4.5791466E-2,9.764459E-2,-5.6865763E-2,-2.240073E-1,1.6183813E0,-5.372292E-1,5.9135493E-2,-1.0200099E-1,1.1248837E0,-4.7712415E-1,-1.0533245E-1,-6.1465174E-1,7.972274E-2,2.0330189E-2,5.545181E-1,-4.535324E-1,-1.6096996E-2,-1.2450919E0,6.554608E-2,-9.7972654E-2,-4.5227048E-1,1.7482222E0,-1.6463547E0,5.0088476E-2,9.31749E-2,-2.7832583E-1,-5.7618767E-2,6.1372375E-1,-1.0366761E-1,-1.0010296E-1,-4.5686953E-2,-1.0377518E-1,-5.0682884E-2,-1.0326964E-1,-1.2938783E-3,-8.888245E-2,-1.0295023E-1,-4.782771E-2,-3.3458438E-2,-9.9994354E-2,-1.0016971E-1,1.4886707E-2,-2.1580074E-2,-9.8274104E-2,3.9681243E-3,1.4026825E-1],"split_indices":[17,12,4,28,0,17,17,23,26,7,22,4,28,0,0,0,24,4,26,12,23,5,16,0,24,0,0,17,12,0,11,0,0,26,16,7,1,0,22,0,11,0,0,0,0,0,0,0,0,0,0,0,0,0,0,0,0,0,0],"split_type":[0,0,0,0,0,0,0,0,0,0,0,0,0,0,0,0,0,0,0,0,0,0,0,0,0,0,0,0,0,0,0,0,0,0,0,0,0,0,0,0,0,0,0,0,0,0,0,0,0,0,0,0,0,0,0,0,0,0,0],"sum_hessian":[9.102495E3,1.0982336E2,8.992672E3,8.583167E1,2.3991682E1,8.429931E3,5.62741E2,4.7306854E1,3.8524822E1,7.835341E3,5.9458984E2,4.9446167E2,6.8279335E1,1.6948006E1,3.0358849E1,1.1035878E1,2.7488943E1,7.7441396E3,9.120087E1,2.084658E1,5.737433E2,4.6062576E2,3.3835907E1,1.9811987E1,4.846735E1,1.1038905E1,1.6450037E1,7.51752E3,2.2661987E2,1.6865738E1,7.433513E1,1.0000991E1,1.0845591E1,1.9499467E2,3.7874863E2,3.759441E2,8.468168E1,1.0597549E1,2.3238358E1,1.6278854E1,3.2188496E1,6.5413735E3,9.761463E2,4.551763E1,1.8110225E2,1.0136436E1,6.419869E1,1.6934591E1,1.7806007E2,3.657506E2,1.2998012E1,1.0279107E1,3.6566498E2,5.9974895E1,2.4706787E1,1.0023021E1,1.3215338E1,1.3717383E1,1.8471111E1],"tree_param":{"num_deleted":"0","num_feature":"30","num_nodes":"59","size_leaf_vector":"1"}},{"base_weights":[-9.8184425E-1,2.2310832E-1,-1.000474E0,5.304054E-1,-5.7399625E-1,-7.37148E-1,-1.0098248E0,7.7469075E-1,1.6875467E-1,-9.238765E-1,2.9060552E-2,-8.0417365E-1,-1.4646347E-1,-1.0118904E0,-5.3697646E-1,9.5042604E-1,2.3612818E-2,-1.9230361E-1,6.776149E-2,-5.5137523E-2,-1.1330674E-1,-1.668191E-1,-8.7276554E-1,-8.76318E-2,8.797342E-2,-1.0163215E0,-8.511211E-1,-9.407587E-2,3.9672583E-2,1.0639238E-1,5.4746967E-2,-5.228714E-2,1.3810165E-2,-7.806064E-2,7.410657E-2,-1.0386306E-1,-6.2332284E-1,-8.7086475E-1,-1.0183461E0,-4.9072662E-1,-1.03412524E-1,6.3674465E-2,-8.023349E-2,-2.5718465E-2,-9.783512E-2,-1.02006234E-1,-8.420368E-2,3.004511E-2,-7.6422796E-2],"categories":[],"categories_nodes":[],"categories_segments":[],"categories_sizes":[],"default_left":[0,0,0,0,0,0,0,0,0,0,0,0,0,0,0,0,0,0,0,0,0,0,0,0,0,0,0,0,0,0,0,0,0,0,0,0,0,0,0,0,0,0,0,0,0,0,0,0,0],"id":28,"left_children":[1,3,5,7,9,11,13,15,17,19,-1,21,23,25,27,29,-1,31,-1,-1,-1,33,35,-1,-1,37,39,-1,-1,-1,-1,-1,-1,-1,-1,-1,41,43,45,47,-1,-1,-1,-1,-1,-1,-1,-1,-1],"loss_changes":[1.8662988E2,3.1474033E1,1.9391602E1,8.029133E0,1.1124624E1,1.1131439E1,7.1679688E0,4.9666214E0,7.206566E0,1.3847351E0,0E0,1.1000504E1,2.337373E1,4.73291E0,1.4122646E1,1.2937202E0,0E0,2.6179674E0,0E0,0E0,0E0,1.5071835E1,8.86647E0,0E0,0E0,1.3647461E0,1.3801407E1,0E0,0E0,0E0,0E0,0E0,0E0,0E0,0E0,0E0,2.1790367E1,7.124626E0,1.4199219E0,1.6451794E1,0E0,0E0,0E0,0E0,0E0,0E0,0E0,0E0,0E0],"parents":[2147483647,0,0,1,1,2,2,3,3,4,4,5,5,6,6,7,7,8,8,9,9,11,11,12,12,13,13,14,14,15,15,17,17,21,21,22,22,25,25,26,26,36,36,37,37,38,38,39,39],"right_children":[2,4,6,8,10,12,14,16,18,20,-1,22,24,26,28,30,-1,32,-1,-1,-1,34,36,-1,-1,38,40,-1,-1,-1,-1,-1,-1,-1,-1,-1,42,44,46,48,-1,-1,-1,-1,-1,-1,-1,-1,-1],"split_conditions":[-3.637189E0,7.67661E-1,-1.7919981E0,5.163936E-1,2.0457743E-1,1.836E2,1.7794089E0,5.314718E-1,-3.574176E-2,-1.1417663E0,2.9060552E-2,-1.0687954E0,-3.8291785E-1,1.4074969E0,-3.291444E-1,3.9260006E-1,2.3612818E-2,1.4662726E0,6.776149E-2,-5.5137523E-2,-1.1330674E-1,2.8409564E-1,1.025147E0,-8.76318E-2,8.797342E-2,-1.1461864E0,-9.644959E-3,-9.407587E-2,3.9672583E-2,1.0639238E-1,5.4746967E-2,-5.228714E-2,1.3810165E-2,-7.806064E-2,7.410657E-2,-1.0386306E-1,1.0415521E0,-7.786316E-1,2.5015008E0,-7.927683E-1,-1.03412524E-1,6.3674465E-2,-8.023349E-2,-2.5718465E-2,-9.783512E-2,-1.02006234E-1,-8.420368E-2,3.004511E-2,-7.6422796E-2],"split_indices":[14,7,14,20,26,29,22,16,26,8,0,7,1,17,9,22,0,20,0,0,0,21,1,0,0,20,8,0,0,0,0,0,0,0,0,0,17,12,7,22,0,0,0,0,0,0,0,0,0],"split_type":[0,0,0,0,0,0,0,0,0,0,0,0,0,0,0,0,0,0,0,0,0,0,0,0,0,0,0,0,0,0,0,0,0,0,0,0,0,0,0,0,0,0,0,0,0,0,0,0,0],"sum_hessian":[8.302937E3,1.2624983E2,8.1766865E3,9.136261E1,3.4887222E1,2.8313623E2,7.8935503E3,5.384779E1,3.751482E1,2.4787752E1,1.009947E1,2.5395793E2,2.917831E1,7.8580806E3,3.5469418E1,4.0023273E1,1.3824516E1,2.2308247E1,1.5206574E1,1.0221794E1,1.4565959E1,2.50088E1,2.2894913E2,1.7136503E1,1.2041807E1,7.6421274E3,2.1595352E2,2.4756039E1,1.0713378E1,2.99478E1,1.0075473E1,1.0860194E1,1.1448052E1,1.5004802E1,1.0003999E1,1.356115E2,9.333764E1,1.1082528E2,7.531302E3,7.3967995E1,1.4198552E2,1.129252E1,8.204512E1,1.7023651E1,9.380163E1,7.4539585E3,7.7343704E1,1.897604E1,5.499196E1],"tree_param":{"num_deleted":"0","num_feature":"30","num_nodes":"49","size_leaf_vector":"1"}},{"base_weights":[-9.737469E-1,1.9154747E-1,-9.885644E-1,5.1467913E-1,-9.925994E-2,-1.0088277E0,-7.601945E-1,1.8536264E-1,7.818902E-1,-1.0114238E0,-6.6487336E-1,-8.5461736E-1,-1.0868103E-1,7.8838654E-2,-2.7501693E-2,9.911971E-2,1.9724706E-2,-1.0151563E0,-8.0208063E-1,-9.12621E-1,2.826779E-2,-5.2151483E-2,-9.1001654E-1,-5.626886E-1,6.115914E-1,-7.324784E-1,-1.0165448E0,-1.0151076E-1,-3.6389887E-2,-1.01598755E-1,-5.1812347E-2,8.091761E-2,-9.8241694E-2,-9.3291074E-1,-4.3385527E-1,3.0115483E-2,-8.3749026E-1,3.4391533E-3,1.3905005E-1,-9.969882E-2,-3.3833862E-3,-9.9076964E-2,-1.02526404E-1,1.5074085E-1,-9.937521E-2,-7.8142576E-2,-9.967256E-2,1.7271267E-2,-9.7814225E-2,-1.0905951E-1,-3.7399754E-2],"categories":[],"categories_nodes":[],"categories_segments":[],"categories_sizes":[],"default_left":[0,0,0,0,0,0,0,0,0,0,0,0,0,0,0,0,0,0,0,0,0,0,0,0,0,0,0,0,0,0,0,0,0,0,0,0,0,0,0,0,0,0,0,0,0,0,0,0,0,0,0],"id":29,"left_children":[1,3,5,7,-1,9,11,13,15,17,19,21,23,-1,-1,-1,-1,25,27,29,-1,31,33,35,37,39,41,-1,43,-1,-1,-1,-1,45,47,-1,49,-1,-1,-1,-1,-1,-1,-1,-1,-1,-1,-1,-1,-1,-1],"loss_changes":[1.3097803E2,3.72227E1,3.3845703E1,6.5458794E0,0E0,5.4594727E0,3.7657074E1,1.0036224E1,4.9029713E0,4.5092773E0,1.3019695E1,2.3772919E1,2.6119793E1,0E0,0E0,0E0,0E0,1.8818359E0,2.0208221E1,1.240551E0,0E0,2.9370386E1,5.058502E0,1.185288E1,1.3868674E1,6.671709E0,4.8046875E-1,0E0,4.29589E1,0E0,0E0,0E0,0E0,3.8351746E0,8.376369E0,0E0,3.972433E0,0E0,0E0,0E0,0E0,0E0,0E0,0E0,0E0,0E0,0E0,0E0,0E0,0E0,0E0],"parents":[2147483647,0,0,1,1,2,2,3,3,5,5,6,6,7,7,8,8,9,9,10,10,11,11,12,12,17,17,18,18,19,19,21,21,22,22,23,23,24,24,25,25,26,26,28,28,33,33,34,34,36,36],"right_children":[2,4,6,8,-1,10,12,14,16,18,20,22,24,-1,-1,-1,-1,26,28,30,-1,32,34,36,38,40,42,-1,44,-1,-1,-1,-1,46,48,-1,50,-1,-1,-1,-1,-1,-1,-1,-1,-1,-1,-1,-1,-1,-1],"split_conditions":[-2.7033043E0,-1.9586315E0,1.8897588E0,-1.986179E-1,-9.925994E-2,3.031279E0,1.0999854E0,-3.3905336E-1,-4.3763304E0,1.0965493E0,6.822134E-1,-2.6906626E0,9.343467E-1,7.8838654E-2,-2.7501693E-2,9.911971E-2,1.9724706E-2,-2.1638124E0,6.8442184E-1,7.103287E-1,2.826779E-2,8.8684835E-2,4.777701E0,-8.4049034E-1,-4.923616E-1,4.521881E-1,-5.442865E-1,-1.0151076E-1,-1.0275167E-1,-1.01598755E-1,-5.1812347E-2,8.091761E-2,-9.8241694E-2,7.61E0,7.481477E-2,3.0115483E-2,1.9503908E-1,3.4391533E-3,1.3905005E-1,-9.969882E-2,-3.3833862E-3,-9.9076964E-2,-1.02526404E-1,1.5074085E-1,-9.937521E-2,-7.8142576E-2,-9.967256E-2,1.7271267E-2,-9.7814225E-2,-1.0905951E-1,-3.7399754E-2],"split_indices":[10,12,4,26,0,7,18,26,3,21,19,12,1,0,0,0,0,19,4,18,0,3,4,13,12,4,10,0,12,0,0,0,0,29,27,0,22,0,0,0,0,0,0,0,0,0,0,0,0,0,0],"split_type":[0,0,0,0,0,0,0,0,0,0,0,0,0,0,0,0,0,0,0,0,0,0,0,0,0,0,0,0,0,0,0,0,0,0,0,0,0,0,0,0,0,0,0,0,0,0,0,0,0,0,0],"sum_hessian":[7.5736304E3,9.494469E1,7.478686E3,7.503452E1,1.9910166E1,6.866043E3,6.1264276E2,3.4369965E1,4.066456E1,6.812681E3,5.33622E1,5.348203E2,7.782244E1,1.4571348E1,1.9798616E1,2.943221E1,1.1232348E1,6.6895635E3,1.231176E2,4.233113E1,1.1031075E1,3.4662983E1,5.0015732E2,4.786843E1,2.9954008E1,3.5285183E1,6.6542783E3,9.606507E1,2.7052528E1,3.2294025E1,1.0037102E1,1.806597E1,1.6597013E1,4.762974E2,2.385993E1,1.1529469E1,3.6338963E1,1.7804432E1,1.2149575E1,2.5285103E1,1.000008E1,1.7109695E3,4.9433086E3,1.0134904E1,1.6917625E1,1.4510046E2,3.3119693E2,1.1607217E1,1.2252713E1,2.2628801E1,1.3710162E1],"tree_param":{"num_deleted":"0","num_feature":"30","num_nodes":"51","size_leaf_vector":"1"}},{"base_weights":[-9.657662E-1,1.6291639E-1,-9.8153675E-1,4.72926E-1,-6.717594E-1,-1.0008543E0,-7.059084E-1,2.3104726E-1,7.766113E-1,-1.02951005E-1,-7.826375E-3,-7.435242E-1,-1.006023E0,-8.222139E-1,1.277193E-2,-1.7851379E-2,7.390949E-2,9.028011E-2,4.8440926E-2,3.700128E-2,-8.431114E-1,-8.630273E-1,-1.0127591E0,-8.8172144E-1,-8.8408306E-2,3.303888E-1,-1.0150959E-1,3.3801287E-2,-5.0313767E-2,-1.02363564E-1,-3.4469742E-1,-9.499135E-1,-3.1923345E-1,-1.0237381E0,-9.6156454E-1,-1.0134015E0,-7.455057E-1,5.0078757E-2,-9.658548E-2,1.389054E-1,-4.196929E-2,7.7140085E-2,-9.943539E-2,-9.8681256E-2,-2.1332944E-2,-8.567815E-2,3.1188948E-2,-4.8741367E-2,-1.0247385E-1,-1.02935135E-1,-9.191037E-2,-6.963171E-2,-1.0281036E-1,-8.70983E-2,9.022499E-3,-1.0909921E-1,4.277546E-2],"categories":[],"categories_nodes":[],"categories_segments":[],"categories_sizes":[],"default_left":[0,0,0,0,0,0,0,0,0,0,0,0,0,0,0,0,0,0,0,0,0,0,0,0,0,0,0,0,0,0,0,0,0,0,0,0,0,0,0,0,0,0,0,0,0,0,0,0,0,0,0,0,0,0,0,0,0],"id":30,"left_children":[1,3,5,7,9,11,13,15,17,-1,-1,19,21,23,25,27,-1,-1,-1,-1,29,31,33,35,37,39,-1,-1,-1,-1,41,43,45,47,49,51,53,-1,-1,-1,55,-1,-1,-1,-1,-1,-1,-1,-1,-1,-1,-1,-1,-1,-1,-1,-1],"loss_changes":[1.2314844E2,2.5176542E1,3.557617E1,5.0093365E0,5.531419E0,7.7182617E0,3.759958E1,5.165391E0,7.018471E-1,0E0,0E0,1.4636726E1,5.1342773E0,1.6824615E1,2.1106588E1,5.0613565E0,0E0,0E0,0E0,0E0,1.034314E1,1.327475E1,2.3608398E0,5.664734E0,1.6069231E1,1.9515852E1,0E0,0E0,0E0,0E0,2.4778757E1,6.51033E0,1.4209676E1,2.1206055E0,2.1260376E0,1.1955261E-1,1.8924835E1,0E0,0E0,0E0,1.8938173E1,0E0,0E0,0E0,0E0,0E0,0E0,0E0,0E0,0E0,0E0,0E0,0E0,0E0,0E0,0E0,0E0],"parents":[2147483647,0,0,1,1,2,2,3,3,4,4,5,5,6,6,7,7,8,8,11,11,12,12,13,13,14,14,15,15,20,20,21,21,22,22,23,23,24,24,25,25,30,30,31,31,32,32,33,33,34,34,35,35,36,36,40,40],"right_children":[2,4,6,8,10,12,14,16,18,-1,-1,20,22,24,26,28,-1,-1,-1,-1,30,32,34,36,38,40,-1,-1,-1,-1,42,44,46,48,50,52,54,-1,-1,-1,56,-1,-1,-1,-1,-1,-1,-1,-1,-1,-1,-1,-1,-1,-1,-1,-1],"split_conditions":[-1.6117035E0,-1.2405673E0,2.442026E0,-1.3306874E0,1.9014139E0,-9.770104E-1,1.5335054E0,1.6942568E0,5.280603E-1,-1.02951005E-1,-7.826375E-3,-1.2917428E0,-1.4092972E0,4.777701E0,2.6573473E-1,1.0574026E0,7.390949E-2,9.028011E-2,4.8440926E-2,3.700128E-2,-2.4484587E0,7.588294E-1,5.545181E-1,-1.2657E-1,2.1993022E-1,-1.1282104E0,-1.0150959E-1,3.3801287E-2,-5.0313767E-2,-1.02363564E-1,-1.3892003E0,3.031279E0,7.6529E4,-2.4574487E0,-4.807547E-1,-7.034973E-1,9.4761163E-1,5.0078757E-2,-9.658548E-2,1.389054E-1,1.19341284E-1,7.7140085E-2,-9.943539E-2,-9.8681256E-2,-2.1332944E-2,-8.567815E-2,3.1188948E-2,-4.8741367E-2,-1.0247385E-1,-1.02935135E-1,-9.191037E-2,-6.963171E-2,-1.0281036E-1,-8.70983E-2,9.022499E-3,-1.0909921E-1,4.277546E-2],"split_indices":[17,10,4,6,11,20,17,21,27,0,0,13,10,4,10,27,0,0,0,0,1,4,17,1,3,13,0,0,0,0,20,7,0,19,18,10,2,0,0,0,1,0,0,0,0,0,0,0,0,0,0,0,0,0,0,0,0],"split_type":[0,0,0,0,0,0,0,0,0,0,0,0,0,0,0,0,0,0,0,0,0,0,0,0,0,0,0,0,0,0,0,0,0,0,0,0,0,0,0,0,0,0,0,0,0,0,0,0,0,0,0,0,0,0,0,0,0],"sum_hessian":[6.9084575E3,9.507006E1,6.813387E3,6.9638725E1,2.5431337E1,6.364684E3,4.4870312E2,3.974417E1,2.9894552E1,1.5408602E1,1.0022736E1,1.2817534E2,6.236509E3,3.8607913E2,6.2624E1,2.7323114E1,1.2421059E1,1.941876E1,1.0475791E1,1.029919E1,1.17876144E2,2.8637592E2,